tree
version=v4
num_class=1
num_tree_per_iteration=1
label_index=0
max_feature_idx=10
objective=regression
feature_names=result_driver_standing points_y company round wins grand_prix year points positionOrder resultId racerId
feature_infos=[48:1594185219] [0:413] [0:88] [1:20] [0:13] [0:39] [1950:2013] [0:25] [1:19] [1:22372] [1:899]
tree_sizes=2878 2977 2951 2962 2951 2963 2963 2955 2963 2957 2955 2971 2982 2946 2924 2974 2941 2972 2942 2900 2963 2960 2949 2988 2929 3001 2984 2952 3023 2953 3002 2957 2973 2970 3014 2966 2976 2975 2940 2866 2957 2907 2930 2944 2915 2969 2900 2980 2918 2913 2989 2868 2974 2985 3004 2980 2886 2842 2875 2927 2886 2889 2914 2924 2881 2997 2939 2998 2891 2978 2921 2949 3016 2872 2949 2792 2999 2777 2928 3001 3019 2999 2748 2884 2971 2933 2914 2801 2958 2918 2938 2935 2921 2984 2790 2968 2716 3018 2983 2991

Tree=0
num_leaves=31
num_cat=0
split_feature=1 4 1 6 1 6 5 5 4 1 0 1 1 10 0 1 4 6 6 0 6 0 1 6 0 0 1 10 0 1
split_gain=1.82789e+07 3.61715e+06 1.6752e+06 1.50461e+06 608154 395737 177659 268754 160822 121807 147983 79376.8 58668.7 45720.8 47522.8 40930.6 34603.2 33343.4 28036.3 26234.2 25741.7 25415.9 22937.2 20867.9 20350.7 18192 17636.8 17615.3 17560.3 17189.8
threshold=2.5000000000000004 1.0000000180025095e-35 1.0000000180025095e-35 1960.5000000000002 7.2500000000000009 1994.5000000000002 18.500000000000004 19.500000000000004 2.5000000000000004 60.500000000000007 1304302738.5000002 5.5000000000000009 11.165000000000001 222.50000000000003 44678440.500000007 11.165000000000001 1.5000000000000002 1995.5000000000002 1958.5000000000002 864859895.50000012 2002.5000000000002 65300025.500000007 3.1650000000000005 2000.5000000000002 69416701.000000015 1304302738.5000002 23.320000000000004 49.500000000000007 262202625.50000003 44.250000000000007
decision_type=2 2 2 2 2 2 2 2 2 2 2 2 2 2 2 2 2 2 2 2 2 2 2 2 2 2 2 2 2 2
left_child=2 4 3 6 11 -5 18 -8 16 10 12 22 20 14 26 -12 -3 -13 -1 -20 -6 -7 -2 -23 -4 -24 -14 -28 -19 -17
right_child=1 8 24 5 9 21 7 -9 -10 -11 15 17 13 -15 -16 29 -18 28 19 -21 -22 23 25 -25 -26 -27 27 -29 -30 -31
leaf_value=10.337261294229702 9.3040461962128624 8.8918525980738696 9.3491021136042871 9.8327144401899869 9.077290594756521 9.5835408262524755 11.096328588889318 10.138856765084981 8.7759935039477863 8.968552896828518 9.3211156811756766 9.1066455580371102 9.0554953685036761 8.990498288373157 9.1141417949442562 9.1770637697576127 8.8345080641475455 9.1813247738666721 10.600038220436337 9.7846021235140785 9.1559064401992067 9.7929793236235074 9.2289995375409699 9.6421476053539656 9.4237574029140063 9.3873585843231222 9.0443169332493216 8.934458828420782 9.291056467501793 9.0819416601785097
leaf_weight=1486 19730 75137 13425 45617 25552 21528 2370 1061 70578 26512 4385 14399 21049 32138 26846 22589 40480 17045 122 515 17574 2596 34893 19657 28523 1913 6664 8065 4638 6014
leaf_count=1486 19730 75137 13425 45617 25552 21528 2370 1061 70578 26512 4385 14399 21049 32138 26846 22589 40480 17045 122 515 17574 2596 34893 19657 28523 1913 6664 8065 4638 6014
internal_value=9.15405 9.00745 9.66301 9.77926 9.11787 9.72965 10.5778 10.8002 8.83547 9.06827 9.08374 9.22357 9.06098 9.03898 9.06386 9.17887 8.87178 9.16563 10.2183 9.94078 9.10933 9.62227 9.26055 9.65974 9.39986 9.23723 9.02613 8.98416 9.2048 9.15706
internal_weight=0 476201 136900 94952 290006 89398 5554 3431 186195 197388 170876 92618 137888 94762 62624 32988 115617 36082 2123 637 43126 43781 56536 22253 41948 36806 35778 14729 21683 28603
internal_count=613101 476201 136900 94952 290006 89398 5554 3431 186195 197388 170876 92618 137888 94762 62624 32988 115617 36082 2123 637 43126 43781 56536 22253 41948 36806 35778 14729 21683 28603
is_linear=0
shrinkage=1


Tree=1
num_leaves=31
num_cat=0
split_feature=1 4 1 1 10 9 10 3 5 4 1 0 1 5 1 10 0 1 4 0 10 1 0 10 9 0 0 10 0 9
split_gain=1.64967e+07 3.26448e+06 1.51187e+06 548859 449260 271498 965000 211364 153264 145142 109930 133554 71637.4 71133.4 52948.7 41586.3 42785.4 38151.3 31229.4 26090.9 23446.7 20700.7 20387.4 28170.3 19253.3 18484.5 18374.8 18280.9 16701.9 25144.9
threshold=2.5000000000000004 1.0000000180025095e-35 1.0000000180025095e-35 7.2500000000000009 255.50000000000003 20330.500000000004 741.50000000000011 4.5000000000000009 18.500000000000004 2.5000000000000004 60.500000000000007 1304302738.5000002 5.5000000000000009 25.500000000000004 11.165000000000001 206.50000000000003 43719624.000000007 21.250000000000004 1.5000000000000002 65300025.500000007 120.50000000000001 3.1650000000000005 855129281.50000012 767.50000000000011 20330.500000000004 95749701.000000015 7190328.0000000009 238.50000000000003 67201841.000000015 3616.5000000000005
decision_type=2 2 2 2 2 2 2 2 2 2 2 2 2 2 2 2 2 2 2 2 2 2 2 2 2 2 2 2 2 2
left_child=2 3 4 12 19 6 -6 8 -8 18 11 14 21 -10 20 16 -16 -13 -3 -1 -5 -2 -9 -24 27 -4 -22 -14 -23 -30
right_child=1 9 25 10 5 -7 7 22 13 -11 -12 17 24 -15 15 -17 -18 -19 -20 -21 26 28 23 -25 -26 -27 -28 -29 29 -31
leaf_value=0.40667066717415201 0.14249401772293763 -0.24908974141572943 0.18950618471453948 0.012867680391935338 0.64233483041545603 0.46128255893920811 1.0007459312677385 1.2409644162631366 1.8451629278126651 -0.35915586910898023 -0.17622454336197463 0.090852360540363775 0.032366363307493429 0.98861275001808446 -0.12024370510946965 -0.1525446863218371 -0.034591468087553076 -0.019399993949926905 -0.30356704928996892 0.50436216925443877 0.11258023887806907 0.036158923696596131 0.65590309499940735 1.0457364952489667 0.1043719112026562 0.25854995076492832 -0.075602900722298055 -0.044248240070498865 0.26883095423427067 0.088574412065302977
leaf_weight=21053 19730 75137 15206 13251 45303 12523 896 507 2370 70578 26512 12859 16730 270 34397 35058 25307 20129 40480 10120 1359 14052 791 1119 4788 26742 28516 14564 2135 20619
leaf_count=21053 19730 75137 15206 13251 45303 12523 896 507 2370 70578 26512 12859 16730 270 34397 35058 25307 20129 40480 10120 1359 14052 791 1119 4788 26742 28516 14564 2135 20619
internal_value=0 -0.139274 0.483511 -0.0343767 0.593952 0.669988 0.720979 1.31947 1.56579 -0.302654 -0.0814944 -0.0667967 0.0660409 1.75756 -0.0884176 -0.10932 -0.0839379 0.0235773 -0.268163 0.438385 -0.0424891 0.101171 0.959109 0.884292 0.0109969 0.233522 -0.0670425 -0.00328952 0.079019 0.105488
internal_weight=0 476201 136900 290006 94952 63779 51256 5953 3536 186195 197388 170876 92618 2640 137888 94762 59704 32988 115617 31173 43126 56536 2417 1910 36082 41948 29875 31294 36806 22754
internal_count=613101 476201 136900 290006 94952 63779 51256 5953 3536 186195 197388 170876 92618 2640 137888 94762 59704 32988 115617 31173 43126 56536 2417 1910 36082 41948 29875 31294 36806 22754
is_linear=0
shrinkage=0.05


Tree=2
num_leaves=31
num_cat=0
split_feature=1 4 1 6 1 6 3 5 4 1 0 1 5 1 10 0 1 4 6 6 0 1 6 6 0 6 0 6 1 0
split_gain=1.48883e+07 2.94619e+06 1.36446e+06 1.2243e+06 495346 322674 157491 141103 130991 99212.2 120533 64653 64197.9 48175.6 40962.9 43082.2 35123.8 28184.6 27742.2 27199.1 20668.5 18682.6 18495.3 17913.3 23217.4 17870.5 19430.6 16986.1 17864.5 16728.5
threshold=2.5000000000000004 1.0000000180025095e-35 1.0000000180025095e-35 1960.5000000000002 7.2500000000000009 1994.5000000000002 4.5000000000000009 18.500000000000004 2.5000000000000004 60.500000000000007 1304302738.5000002 5.5000000000000009 25.500000000000004 13.250000000000002 277.50000000000006 48607836.000000007 11.165000000000001 1.5000000000000002 2002.5000000000002 1995.5000000000002 65300025.500000007 3.1650000000000005 2000.5000000000002 1958.5000000000002 869630933.50000012 1953.5000000000002 976987393.00000012 2006.5000000000002 26.250000000000004 69416701.000000015
decision_type=2 2 2 2 2 2 2 2 2 2 2 2 2 2 2 2 2 2 2 2 2 2 2 2 2 2 2 2 2 2
left_child=2 4 3 6 11 -5 7 25 17 10 13 21 -9 18 15 27 -12 -3 -6 -13 -7 -2 -22 -8 -25 26 -1 28 -15 -4
right_child=1 8 29 5 9 20 23 12 -10 -11 16 19 -14 14 -16 -17 -18 -19 -20 -21 22 -23 -24 24 -26 -27 -28 -29 -30 -31
leaf_value=1.1443550667302071 0.13536967202205374 -0.23663525540575381 0.17582185815566079 0.61256438893218401 -0.078143615705966618 0.38761179814857871 1.018858904835338 1.7529043978276637 -0.34119808626227627 -0.16741326467488715 0.15416762746726095 -0.042824532560312351 0.9391820723922164 -0.12391833530148254 -0.16941106345648049 -0.040584102507099457 0.0021975489532606203 -0.28838870067370265 -0.0078779820885334882 0.045823057125686024 0.58176318037858921 0.075068071296226335 0.43976454499258227 1.2403753056245692 0.48091982267315692 0.85642919859113908 2.5565371513366699 -0.080030488052174886 -0.22653078298393958 0.24350786233514199
leaf_weight=102 19730 75137 13425 45617 34285 21528 1479 2370 70578 26512 4385 14399 270 14152 20868 26491 28603 40480 23798 21683 2596 36806 19657 136 387 778 32 12237 6057 28523
leaf_count=102 19730 75137 13425 45617 34285 21528 1479 2370 70578 26512 4385 14399 270 14152 20868 26491 28603 40480 23798 21683 2596 36806 19657 136 387 778 32 12237 6057 28523
internal_value=0 -0.13231 0.459336 0.564254 -0.0326578 0.519503 1.28457 1.48446 -0.287522 -0.0774197 -0.0634569 0.0627389 1.66968 -0.0839967 -0.10921 -0.0878945 0.0223985 -0.254755 -0.0493541 0.0104471 0.42254 0.0961122 0.45633 0.92992 0.678407 0.948284 1.48159 -0.126522 -0.154673 0.221846
internal_weight=0 476201 136900 94952 290006 89398 5554 3552 186195 197388 170876 92618 2640 137888 79805 58937 32988 115617 58083 36082 43781 56536 22253 2002 523 912 134 32446 20209 41948
internal_count=613101 476201 136900 94952 290006 89398 5554 3552 186195 197388 170876 92618 2640 137888 79805 58937 32988 115617 58083 36082 43781 56536 22253 2002 523 912 134 32446 20209 41948
is_linear=0
shrinkage=0.05


Tree=3
num_leaves=31
num_cat=0
split_feature=1 4 1 6 1 6 3 4 2 1 1 0 6 1 1 0 3 4 1 0 0 1 6 0 6 0 0 0 10 6
split_gain=1.34367e+07 2.65894e+06 1.23142e+06 1.10493e+06 447150 291213 142135 118219 101713 82078.8 80697.2 91422.3 38733.1 40703.4 32675 28506.1 25748.6 25436.6 23615.1 22141 18653.2 16861 16801.6 22325.6 16691.6 16321.6 16308.5 15200.3 15006.2 14680.9
threshold=2.5000000000000004 1.0000000180025095e-35 1.0000000180025095e-35 1960.5000000000002 8.2500000000000018 1994.5000000000002 4.5000000000000009 2.5000000000000004 16.500000000000004 5.5000000000000009 81.500000000000014 1376576965.5000002 1997.5000000000002 23.320000000000004 21.250000000000004 1304302738.5000002 1.5000000000000002 1.5000000000000002 15.250000000000002 41853523.000000007 65300025.500000007 3.1650000000000005 1953.5000000000002 874712797.50000012 2000.5000000000002 1117389754.0000002 1304302738.5000002 46623902.500000007 47.500000000000007 1994.5000000000002
decision_type=2 2 2 2 2 2 2 2 2 2 2 2 2 2 2 2 2 2 2 2 2 2 2 2 2 2 2 2 2 2
left_child=2 4 3 6 9 -5 8 17 -1 21 11 12 18 -14 -13 29 -10 -3 -6 28 -7 -2 -8 -24 -22 -18 -23 -4 -15 -11
right_child=1 7 27 5 10 20 22 -9 16 15 -12 14 13 19 -16 -17 25 -19 -20 -21 24 26 23 -25 -26 -27 -28 -29 -30 -31
leaf_value=0.71394030968577116 0.12860107106594224 -0.22480349442500458 0.15914042131057532 0.58193616633962231 -0.093077150688120044 0.36823138244441789 1.2155101221799851 -0.32413818778446885 0.98913671396194247 -0.042521193156747447 -0.18095357338560125 0.08714520950703622 -0.038349126017925249 -0.098837319291485606 -0.024909939348039829 0.13223447591582127 1.592849294541421 -0.2739692642189297 -0.16946781547319179 -0.076075233506511519 0.55267346842079579 0.063521693598949755 1.0512211064774861 0.67658005643603669 0.41777644778653988 1.1990804366284262 0.21345890414571489 0.22830530109411004 -0.19691553066670187 0.014937438953705374
leaf_weight=457 19730 75137 10645 45617 23773 21528 320 70578 218 17985 17454 9679 52610 7271 19843 3987 2584 40480 17612 25733 2596 34893 645 1037 19657 293 1913 31303 8412 29111
leaf_count=457 19730 75137 10645 45617 23773 21528 320 70578 218 17985 17454 9679 52610 7271 19843 3987 2584 40480 17612 25733 2596 34893 645 1037 19657 293 1913 31303 8412 29111
internal_value=0 -0.125694 0.436369 0.536041 -0.031025 0.493528 1.22034 -0.273146 1.41024 0.0498 -0.0787164 -0.0678972 -0.0852788 -0.0675376 0.0118281 0.00386271 1.51305 -0.242017 -0.125586 -0.104615 0.401413 0.0913066 0.883424 0.820244 0.433513 1.55275 0.0713147 0.210754 -0.151444 -0.00700484
internal_weight=0 476201 136900 94952 290006 89398 5554 186195 3552 107619 182387 164933 135411 94026 29522 51083 3095 115617 41385 41416 43781 56536 2002 1682 22253 2877 36806 41948 15683 47096
internal_count=613101 476201 136900 94952 290006 89398 5554 186195 3552 107619 182387 164933 135411 94026 29522 51083 3095 115617 41385 41416 43781 56536 2002 1682 22253 2877 36806 41948 15683 47096
is_linear=0
shrinkage=0.05


Tree=4
num_leaves=31
num_cat=0
split_feature=1 4 1 6 1 6 3 5 4 1 0 5 1 1 6 1 0 4 6 6 0 6 0 9 0 1 6 6 0 0
split_gain=1.21266e+07 2.39969e+06 1.11136e+06 997197 405130 262820 128277 119751 106693 82227.3 99720.9 55509.1 52040.5 39155.2 36238.3 28922.6 23133.7 22956.5 22607.8 18910.2 16834.6 15472.8 19901.6 15231.3 19067.7 15216.9 15064.3 14950.7 17546.4 14920.6
threshold=2.5000000000000004 1.0000000180025095e-35 1.0000000180025095e-35 1960.5000000000002 7.2500000000000009 1994.5000000000002 4.5000000000000009 18.500000000000004 2.5000000000000004 60.500000000000007 1376576965.5000002 25.500000000000004 5.5000000000000009 11.165000000000001 1996.5000000000002 11.165000000000001 43719624.000000007 1.5000000000000002 1995.5000000000002 2002.5000000000002 65300025.500000007 1958.5000000000002 869630933.50000012 4019.5000000000005 369126751.00000006 3.1650000000000005 2000.5000000000002 1953.5000000000002 976987393.00000012 5458317.5000000009
decision_type=2 2 2 2 2 2 2 2 2 2 2 2 2 2 2 2 2 2 2 2 2 2 2 2 2 2 2 2 2 2
left_child=2 4 3 6 12 -5 7 27 17 10 13 -9 25 19 -15 -12 -16 -3 -14 29 -7 -8 -23 -18 -25 -2 -22 28 -1 -6
right_child=1 8 -4 5 9 20 21 11 -10 -11 15 -13 18 14 16 -17 23 -19 -20 -21 26 22 -24 24 -26 -27 -28 -29 -30 -31
leaf_value=1.0131085986379926 0.12217081417548162 -0.21356331959195451 0.20021583642247545 0.55283939846510544 0.19197192031441007 0.34981973659411897 0.92191142894030431 1.587743729860974 -0.30793127913264784 -0.1518835193361226 0.15783940151270937 0.83108880219636139 -0.038682937032605669 -0.14470023371963747 -0.10296740352001388 0.0092166133727313426 -0.014837214894583957 -0.26027080552991139 0.04213695558230332 0.0043803049195558861 0.52504041595341433 1.1257952073041131 0.42265757479408922 -0.12662734173668835 -0.029690587111229988 0.067748975678642756 0.39688759874750534 0.76176216890389026 2.3550743103027343 -0.068086548408394107
leaf_weight=102 19730 75137 41948 45617 564 21528 1479 2370 70578 26512 3792 270 14399 24142 36375 23938 18614 40480 21683 18167 2596 136 387 10002 10294 36806 19657 778 32 24988
leaf_count=102 19730 75137 41948 45617 564 21528 1479 2370 70578 26512 3792 270 14399 24142 36375 23938 18614 40480 21683 18167 2596 136 387 10002 10294 36806 19657 778 32 24988
internal_value=0 -0.11941 0.41455 0.509239 -0.0294737 0.468852 1.15932 1.33972 -0.259488 -0.0699547 -0.0572431 1.51036 0.0567995 -0.0740547 -0.091395 0.0295404 -0.0743014 -0.229917 0.00988471 -0.0346188 0.381342 0.839253 0.6055 -0.047503 -0.0774616 0.0867412 0.411838 0.845779 1.33358 -0.0623464
internal_weight=0 476201 136900 94952 290006 89398 5554 3552 186195 197388 170876 2640 92618 143146 99427 27730 75285 115617 36082 43719 43781 2002 523 38910 20296 56536 22253 912 134 25552
internal_count=613101 476201 136900 94952 290006 89398 5554 3552 186195 197388 170876 2640 92618 143146 99427 27730 75285 115617 36082 43719 43781 2002 523 38910 20296 56536 22253 912 134 25552
is_linear=0
shrinkage=0.05


Tree=5
num_leaves=31
num_cat=0
split_feature=1 4 1 1 10 9 10 3 5 4 1 0 5 1 10 1 0 1 1 0 4 10 0 0 9 0 1 0 10 0
split_gain=1.09512e+07 2.15932e+06 1.00136e+06 366126 295715 174771 651534 108857 106438 95785.5 75336.2 103212 55580 48124.7 34428.4 34770.4 27893.8 21059.7 20580.3 20539.7 20514.6 17924.5 23802.8 17728 15101 14828.1 14703 14161.9 12312.1 11681.8
threshold=2.5000000000000004 1.0000000180025095e-35 1.0000000180025095e-35 7.2500000000000009 255.50000000000003 20330.500000000004 741.50000000000011 4.5000000000000009 15.500000000000002 2.5000000000000004 47.500000000000007 1304302738.5000002 25.500000000000004 5.5000000000000009 180.50000000000003 15.250000000000002 39008357.000000007 13.250000000000002 11.165000000000001 1031602875.0000001 1.5000000000000002 800.50000000000011 864859895.50000012 65300025.500000007 20330.500000000004 262202625.50000003 95.500000000000014 95749701.000000015 255.50000000000003 69416701.000000015
decision_type=2 2 2 2 2 2 2 2 2 2 2 2 2 2 2 2 2 2 2 2 2 2 2 2 2 2 2 2 2 2
left_child=2 3 4 13 23 6 29 8 -8 20 11 14 19 25 16 -16 17 -5 -13 -10 -3 22 -9 -1 28 -2 -12 -4 -15 -6
right_child=1 9 27 10 5 -7 7 21 12 -11 26 18 -14 24 15 -17 -18 -19 -20 -21 -22 -23 -24 -25 -26 -27 -28 -29 -30 -31
leaf_value=0.3315150892661915 0.062452544112045309 -0.20293131022942218 0.15164238690905363 -0.029612688245414583 0.39080887817915921 0.37806167183308181 0.79114551378152576 1.017090499237792 1.5486290056728622 -0.29237555458850223 -0.10645524542619517 0.13409794970340841 0.70876794412316557 0.024177762104527975 -0.06672781160654144 -0.14240500034414572 -0.0061029844246153729 -0.10205888497665738 0.016591607358849066 1.1151084361000667 -0.24710870474347627 1.0928991929540095 0.63476640809149976 0.41205543310589809 0.091955884317783079 0.11513983696994107 -0.17128045178582335 0.21213288226599755 -0.038726101521302639 0.52657386936461703
leaf_weight=21145 34923 75122 15161 17333 1644 12557 919 584 2060 70389 23749 4414 251 17545 38129 25216 26953 23813 23914 315 40417 477 1344 10094 4746 21622 13847 26744 13975 43726
leaf_count=21145 34923 75122 15161 17333 1644 12557 919 584 2060 70389 23749 4414 251 17545 38129 25216 26953 23813 23914 315 40417 477 1344 10094 4746 21622 13847 26744 13975 43726
internal_value=0 -0.113371 0.393889 -0.028136 0.483607 0.54526 0.586171 1.07812 1.25427 -0.246397 -0.0666496 -0.0516647 1.41635 0.0537653 -0.0703208 -0.0968529 -0.0456409 -0.0715405 0.0349012 1.49113 -0.218385 0.81847 0.750574 0.357539 0.00880781 0.0825994 -0.130331 0.190248 -0.00371188 0.521654
internal_weight=0 476107 137021 290179 95116 63877 51320 5950 3545 185928 197368 159772 2626 92811 131444 63345 68099 41146 28328 2375 115539 2405 1928 31239 36266 56545 37596 41905 31520 45370
internal_count=613128 476107 137021 290179 95116 63877 51320 5950 3545 185928 197368 159772 2626 92811 131444 63345 68099 41146 28328 2375 115539 2405 1928 31239 36266 56545 37596 41905 31520 45370
is_linear=0
shrinkage=0.05


Tree=6
num_leaves=31
num_cat=0
split_feature=1 4 1 6 1 6 5 5 4 1 0 1 6 1 1 6 0 6 1 0 4 0 0 1 1 0 9 6 0 0
split_gain=9.88346e+06 1.94878e+06 903731 806448 330428 209811 92277.9 139625 86446.4 67990.9 93148.5 43432.5 34415.7 27313.9 24522.1 21615.3 22087.8 19073.5 18573.7 18537 18514.4 14006.4 13890.8 15800.5 13426.8 13375.5 18950.7 13216.2 13024.2 12907.3
threshold=2.5000000000000004 1.0000000180025095e-35 1.0000000180025095e-35 1960.5000000000002 7.2500000000000009 1994.5000000000002 18.500000000000004 19.500000000000004 2.5000000000000004 47.500000000000007 1304302738.5000002 5.5000000000000009 1997.5000000000002 15.250000000000002 22.250000000000004 1953.5000000000002 976987393.00000012 1995.5000000000002 11.165000000000001 1031602875.0000001 1.5000000000000002 65300025.500000007 1304302738.5000002 3.1650000000000005 81.500000000000014 40944153.000000007 20184.000000000004 1997.5000000000002 47603837.000000007 46623902.500000007
decision_type=2 2 2 2 2 2 2 2 2 2 2 2 2 2 2 2 2 2 2 2 2 2 2 2 2 2 2 2 2 2
left_child=2 4 3 6 11 -5 15 19 20 10 12 22 13 -6 -14 16 -1 -13 -12 -8 -3 -7 23 -2 -11 -16 -27 -23 -19 -4
right_child=1 8 29 5 9 21 7 -9 -10 24 18 17 14 -15 25 -17 -18 28 -20 -21 -22 27 -24 -25 -26 26 -28 -29 -30 -31
leaf_value=0.93445541521959774 0.10961070707904129 -0.1927847531101238 0.13315272264431272 0.49811888928302023 -0.072061140861427578 0.31633469215295235 1.4711975675416227 0.72440433992191688 -0.2777567763597425 -0.095968087338872771 0.12739295298339123 -0.035898574679007388 -0.02931891670879197 -0.15177053268361307 -0.12542498206383076 0.7154268812467266 1.8925451501623378 0.0034449171191827978 0.01576202369767148 1.0593531532893106 -0.23475327818581501 0.50708827522034639 0.2051244439781427 0.053467052127866226 -0.15587731332192267 -0.030813004188317002 -0.1769560540201508 0.36179333168960742 0.081399158968965046 0.19691846261361479
leaf_weight=275 19549 75122 10635 45683 28956 21601 2060 1051 70389 20121 4414 14563 57427 17091 12304 1790 77 12063 23914 315 40417 1694 2085 34911 17475 12991 2675 20570 9640 31270
leaf_count=275 19549 75122 10635 45683 28956 21601 2060 1051 70389 20121 4414 14563 57427 17091 12304 1790 77 12063 23914 315 40417 1694 2085 34911 17475 12991 2675 20570 9640 31270
internal_value=0 -0.107702 0.374195 0.459427 -0.0267293 0.423123 1.04329 1.20424 -0.234077 -0.0633171 -0.0490815 0.051077 -0.0668048 -0.101646 -0.0480178 0.785862 1.14404 0.00836742 0.0331561 1.41657 -0.207466 0.345019 0.0784694 0.0736204 -0.123814 -0.0864097 -0.0557672 0.372848 0.0380705 0.180735
internal_weight=0 476107 137021 95116 290179 89548 5568 3426 185928 197368 159772 92811 131444 46047 85397 2142 352 36266 28328 2375 115539 43865 56545 54460 37596 27970 15666 22264 21703 41905
internal_count=613128 476107 137021 95116 290179 89548 5568 3426 185928 197368 159772 92811 131444 46047 85397 2142 352 36266 28328 2375 115539 43865 56545 54460 37596 27970 15666 22264 21703 41905
is_linear=0
shrinkage=0.05


Tree=7
num_leaves=31
num_cat=0
split_feature=1 4 1 6 1 6 5 5 4 1 0 1 6 1 6 0 0 1 1 0 4 0 6 0 0 9 0 9 0 0
split_gain=8.91982e+06 1.75878e+06 815617 727814 299141 189355 83283.2 126012 78017.9 54691.3 70479.1 54662.5 31820.6 25106.9 19504.6 19936.2 19290.4 18951.2 17018.8 16729.7 16709.3 15990.3 12986.4 16529.9 12800.4 15464.2 12640.8 12511.7 21415.5 11945.5
threshold=2.5000000000000004 1.0000000180025095e-35 1.0000000180025095e-35 1960.5000000000002 8.2500000000000018 1994.5000000000002 18.500000000000004 19.500000000000004 2.5000000000000004 60.500000000000007 1376576965.5000002 5.5000000000000009 1997.5000000000002 23.320000000000004 1953.5000000000002 976987393.00000012 1304302738.5000002 21.250000000000004 15.250000000000002 1031602875.0000001 1.5000000000000002 40944153.000000007 2003.5000000000002 76749054.000000015 864859895.50000012 18467.500000000004 65300025.500000007 3962.5000000000005 380217450.00000006 905539802.50000012
decision_type=2 2 2 2 2 2 2 2 2 2 2 2 2 2 2 2 2 2 2 2 2 2 2 2 2 2 2 2 2 2
left_child=2 4 3 6 11 -5 14 19 20 10 12 22 18 -14 15 -1 -13 -12 -6 -8 -3 -15 23 -2 -16 -26 -7 -23 -29 -4
right_child=1 8 29 5 9 26 7 -9 -10 -11 17 16 13 21 24 -17 -18 -19 -20 -21 -22 27 -24 -25 25 -27 -28 28 -30 -31
leaf_value=0.88768918353708637 0.012110453613135889 -0.18314551406775206 0.16131047471418494 0.47321316401929192 -0.077087727385689642 0.30051794351016442 1.3976377157563145 0.68818412911426907 -0.26386894073274497 -0.13075345115131384 0.076918776164972072 -0.005662001004059905 -0.029330912299244255 -0.12537204220755621 0.87833091981949352 1.7979179877739448 0.10898467785992055 -0.011004870951179288 -0.14219104421619608 1.0063854689825149 -0.22301561804547984 -0.022450745250816608 0.10983450891618317 0.081405377848044871 0.36680559842091687 0.73047483330530838 0.3542059545931609 -0.19439454374014845 -0.042399890626706779 0.2403009643443936
leaf_weight=275 12918 75122 36394 45683 23766 21601 2060 1051 70389 26547 9727 47249 52520 13979 558 77 3978 16567 17379 315 40417 11956 17844 25783 477 755 22264 3666 6300 5511
leaf_count=275 12918 75122 36394 45683 23766 21601 2060 1051 70389 26547 9727 47249 52520 13979 558 77 3978 16567 17379 315 40417 11956 17844 25783 477 755 22264 3666 6300 5511
internal_value=0 -0.102317 0.355485 0.436455 -0.0253928 0.401967 0.991121 1.14402 -0.222373 -0.0644146 -0.0531154 0.0406527 -0.068262 -0.0513591 0.746563 1.0868 0.00324081 0.0215209 -0.104586 1.34575 -0.197093 -0.0835845 0.074546 0.0582754 0.679656 0.589671 0.327768 -0.0569378 -0.0983112 0.171699
internal_weight=0 476107 137021 95116 290179 89548 5568 3426 185928 182407 155860 107772 129566 88421 2142 352 51227 26294 41145 2375 115539 35901 56545 38701 1790 1232 43865 21922 9966 41905
internal_count=613128 476107 137021 95116 290179 89548 5568 3426 185928 182407 155860 107772 129566 88421 2142 352 51227 26294 41145 2375 115539 35901 56545 38701 1790 1232 43865 21922 9966 41905
is_linear=0
shrinkage=0.05


Tree=8
num_leaves=31
num_cat=0
split_feature=1 4 1 6 1 6 1 2 4 3 6 1 0 0 6 0 3 0 1 0 9 0 0 6 1 4 6 1 0 6
split_gain=8.05013e+06 1.5873e+06 736095 656852 270655 170893 76918 73978.7 70411.1 62277.2 43396.1 39518.8 51360.8 26505 23011.5 20743.8 19285.2 19116.8 17735.5 16400 17144.2 22510.7 15988.7 15700.1 19409.8 15080.1 14784.5 13771.5 12363.7 14300
threshold=2.5000000000000004 1.0000000180025095e-35 1.0000000180025095e-35 1960.5000000000002 11.165000000000001 1994.5000000000002 5.5000000000000009 16.500000000000004 2.5000000000000004 4.5000000000000009 2004.5000000000002 81.500000000000014 1304302738.5000002 4366274.0000000009 1993.5000000000002 874712797.50000012 1.5000000000000002 514957091.50000006 44.250000000000007 47603837.000000007 4317.5000000000009 290151064.00000006 1117389754.0000002 2006.5000000000002 26.250000000000004 1.5000000000000002 1953.5000000000002 22.250000000000004 262202625.50000003 1976.5000000000002
decision_type=2 2 2 2 2 2 2 2 2 2 2 2 2 2 2 2 2 2 2 2 2 2 2 2 2 2 2 2 2 2
left_child=2 4 3 7 6 -5 28 15 25 16 13 12 14 -8 -6 -1 -9 -12 -14 23 -21 27 -18 24 -16 -3 -11 -22 -2 -30
right_child=1 8 -4 5 11 -7 10 9 -10 26 17 -13 18 -15 19 -17 22 -19 -20 20 21 -23 -24 -25 -26 -27 -28 -29 29 -31
leaf_value=0.89695585284164947 0.052421972068802683 -0.17398824141832692 0.16311363687209166 0.44955253777266924 -0.12852000777893949 0.31137931772421423 0.18152083359548765 0.71270835434266355 -0.25067547895117487 1.0476600688453004 0.020556572580844298 -0.14154573764719167 0.017733542198003219 -0.0371714266903952 -0.088515609092314138 0.42766570158736417 1.2299640998198242 0.11280064935825405 -0.062265087499748961 -0.013357777183558121 -0.074966004247185566 -0.016897245204299579 0.83967082402477533 -0.050747035701839222 -0.18903256359648821 -0.2118648323363273 0.65863880882336412 -0.1895185175314115 0.05384661716523758 0.13594800639608226
leaf_weight=342 34923 75122 41905 45683 19193 43865 1423 228 70389 319 22394 17475 22468 52548 18779 756 2589 7497 10017 20797 5724 8154 292 15868 6453 40417 1042 4844 9327 12295
leaf_count=342 34923 75122 41905 45683 19193 43865 1423 228 70389 319 22394 17475 22468 52548 18779 756 2589 7497 10017 20797 5724 8154 292 15868 6453 40417 1042 4844 9327 12295
internal_value=0 -0.0972011 0.337711 0.414633 -0.0241231 0.381869 0.0257499 0.941566 -0.211254 1.03189 -0.00463821 -0.0708777 -0.0615432 -0.0314054 -0.0793163 0.573838 1.15537 0.0436924 -0.00693465 -0.0676023 -0.0446042 -0.0793138 1.19041 -0.0897157 -0.114222 -0.187238 0.74982 -0.127473 0.0708187 0.100532
internal_weight=0 476107 137021 95116 290179 89548 140407 5568 185928 4470 83862 149772 132297 53971 99812 1098 3109 29891 32485 80619 39519 18722 2881 41100 25232 115539 1361 10568 56545 21622
internal_count=613128 476107 137021 95116 290179 89548 140407 5568 185928 4470 83862 149772 132297 53971 99812 1098 3109 29891 32485 80619 39519 18722 2881 41100 25232 115539 1361 10568 56545 21622
is_linear=0
shrinkage=0.05


Tree=9
num_leaves=31
num_cat=0
split_feature=1 4 1 1 10 9 10 3 5 4 1 0 5 1 1 0 10 0 1 2 0 10 4 0 10 1 0 9 0 0
split_gain=7.26525e+06 1.43254e+06 664325 246139 197750 121257 429881 69019.3 73758.5 63546 51634.9 69856.1 39944 30731.4 22725.6 18518.1 16866 20092.7 14407.7 14061.6 13837.6 13664 13609.8 13154.6 17311.3 11968.6 13234.7 24348.8 11460.2 11322
threshold=2.5000000000000004 1.0000000180025095e-35 1.0000000180025095e-35 7.2500000000000009 287.50000000000006 20330.500000000004 741.50000000000011 4.5000000000000009 18.500000000000004 2.5000000000000004 47.500000000000007 1376576965.5000002 25.500000000000004 5.5000000000000009 11.165000000000001 69416701.000000015 180.50000000000003 35319209.000000007 11.165000000000001 24.500000000000004 1031602875.0000001 169.50000000000003 1.5000000000000002 850073343.50000012 800.50000000000011 3.1650000000000005 65300025.500000007 3616.5000000000005 95749701.000000015 1304302738.5000002
decision_type=2 2 2 2 2 2 2 2 2 2 2 2 2 2 2 2 2 2 2 2 2 2 2 2 2 2 2 2 2 2
left_child=2 3 4 13 15 6 -6 8 -8 22 11 14 20 25 19 -1 17 -16 -13 -5 -10 -17 -3 -9 -25 -2 -27 -28 -4 -29
right_child=1 9 28 10 5 -7 7 23 12 -11 -12 18 -14 -15 16 21 -18 -19 -20 -21 -22 -23 -24 24 -26 26 27 29 -30 -31
leaf_value=0.26919158623231876 0.098693097195273582 -0.16528882542571266 0.12022975305557629 -0.063430979927581996 0.42732433380760765 0.30789641203883727 0.63521883801614898 0.91483598671625799 1.2662578476285473 -0.23814171741170292 -0.10721615732623005 0.12600441120502329 0.5558180182103617 0.0083100920313081642 -0.079433030295381207 0.31196680923193376 -0.093369640457698175 -0.015845598431880846 0.019906794966558408 -0.0046699688664213817 0.91042753370981377 0.43397177221568212 -0.20127158594078157 0.5361025587041327 0.89172724256666192 0.011828069794753052 0.23244703277291123 0.045311009708716786 0.17464523420624845 0.17342232776014774
leaf_weight=22255 19736 75122 15161 16103 43455 12557 919 458 2060 70389 37596 3808 251 36266 27231 7614 42065 22846 20034 27685 315 3285 40417 1504 443 13848 2186 18877 26744 1898
leaf_count=22255 19736 75122 15161 16103 43455 12557 919 458 2060 70389 37596 3808 251 36266 27231 7614 42065 22846 20034 27685 315 3285 40417 1504 443 13848 2186 18877 26744 1898
internal_value=0 -0.092341 0.320825 -0.022917 0.393901 0.446637 0.4819 0.880484 1.02075 -0.200692 -0.0544953 -0.0420895 1.15567 0.0442361 -0.0559359 0.295342 -0.0700293 -0.0504233 0.0368525 -0.0262793 1.21906 0.34874 -0.177876 0.673733 0.617018 0.0672778 0.0504337 0.0737172 0.154958 0.0570152
internal_weight=0 476107 137021 290179 95116 61962 49405 5950 3545 185928 197368 159772 2626 92811 135930 33154 92142 50077 23842 43788 2375 10899 115539 2405 1947 56545 36809 22961 41905 20775
internal_count=613128 476107 137021 290179 95116 61962 49405 5950 3545 185928 197368 159772 2626 92811 135930 33154 92142 50077 23842 43788 2375 10899 115539 2405 1947 56545 36809 22961 41905 20775
is_linear=0
shrinkage=0.05


Tree=10
num_leaves=31
num_cat=0
split_feature=1 4 1 6 1 6 2 4 1 0 5 5 1 6 0 1 1 4 6 1 0 6 0 6 9 0 2 0 6 0
split_gain=6.58446e+06 1.29827e+06 603837 566372 223798 138809 65914.8 58095 47239 62470.3 44596.4 60179.8 27017.9 24522.6 23728.3 18893.5 17726.4 17689 15309.6 12486.4 12273.7 15408.4 11850.5 14230.8 13200.3 13729.3 12133.5 11741.4 11579.6 15073.5
threshold=2.5000000000000004 1.0000000180025095e-35 1.0000000180025095e-35 1960.5000000000002 7.2500000000000009 1992.5000000000002 16.500000000000004 1.5000000000000002 47.500000000000007 1304302738.5000002 18.500000000000004 19.500000000000004 5.5000000000000009 1997.5000000000002 874712797.50000012 15.250000000000002 13.250000000000002 3.5000000000000004 1995.5000000000002 11.165000000000001 67201841.000000015 2000.5000000000002 43719624.000000007 2006.5000000000002 7464.5000000000009 369126751.00000006 32.500000000000007 1031602875.0000001 1953.5000000000002 976987393.00000012
decision_type=2 2 2 2 2 2 2 2 2 2 2 2 2 2 2 2 2 2 2 2 2 2 2 2 2 2 2 2 2 2
left_child=2 4 3 6 12 -5 14 -3 9 13 28 27 -2 15 -1 -6 -15 -9 -14 -11 -7 -22 23 26 -24 -26 -18 -12 29 -8
right_child=1 7 -4 5 8 20 10 17 -10 19 11 -13 18 16 -16 -17 22 -19 -20 -21 21 -23 24 -25 25 -27 -28 -29 -30 -31
leaf_value=0.86421922333299561 0.063953988335892706 -0.15666336027314259 0.14754939689908378 0.40827566939104393 -0.059169169649260271 0.25738735033647858 0.77403088090865602 -0.19620353397828283 -0.1020040518222155 0.10530942458704623 1.2118986361257127 0.65240110923414651 -0.031201971552768794 -0.00953384141049822 0.36391208168776035 -0.12572584283590191 -0.16631279587067535 -0.23651628511360503 0.035165940189186666 0.013398980602120861 0.40329547885983247 0.29161253320434705 -0.001307598236704466 -0.035174100888566671 -0.12422712950248414 -0.009105134616951378 -0.076527835667080601 0.88981549440903052 0.62682285907719959 1.5641147994995119
leaf_weight=341 56893 75103 41911 43802 28792 22468 246 63006 37605 4367 2101 736 14444 32709 777 16934 5878 47899 21810 24024 3665 19628 14792 10953 5996 4559 10457 327 1051 80
leaf_count=341 56893 75103 41911 43802 28792 22468 246 63006 37605 4367 2101 736 14444 32709 777 16934 5878 47899 21810 24024 3665 19628 14792 10953 5996 4559 10457 327 1051 80
internal_value=0 -0.0875 0.305697 0.375304 -0.0214069 0.344653 0.860422 -0.19062 -0.0515938 -0.0397057 0.945093 1.04846 0.0424579 -0.054271 0.51651 -0.0838175 -0.0384404 -0.213614 0.00872422 0.0275363 0.283753 0.309185 -0.0564039 -0.0792693 -0.0317875 -0.0745027 -0.108836 1.16852 0.707576 0.967917
internal_weight=0 476221 137133 95222 290213 89563 5659 186008 197066 159461 4541 3164 93147 131070 1118 45726 85344 110905 36254 28391 45761 23293 52635 27288 25347 10555 16335 2428 1377 326
internal_count=613354 476221 137133 95222 290213 89563 5659 186008 197066 159461 4541 3164 93147 131070 1118 45726 85344 110905 36254 28391 45761 23293 52635 27288 25347 10555 16335 2428 1377 326
is_linear=0
shrinkage=0.05


Tree=11
num_leaves=31
num_cat=0
split_feature=1 4 1 6 1 6 2 4 3 1 0 1 5 0 6 1 5 1 6 0 0 6 1 9 0 4 1 0 9 0
split_gain=5.94248e+06 1.17169e+06 544963 511149 202246 125275 59489.1 52840.2 46003 39930.3 45317.6 34874.7 28803.8 21413.9 20076.4 23112 19717.6 16724.7 15228 16006.1 12689.7 12517.8 11375.8 11293.5 17813.9 11233.3 11141 12542.7 24250.7 11077.4
threshold=2.5000000000000004 1.0000000180025095e-35 1.0000000180025095e-35 1960.5000000000002 8.2500000000000018 1992.5000000000002 16.500000000000004 2.5000000000000004 4.5000000000000009 81.500000000000014 1382719326.0000002 5.5000000000000009 15.500000000000002 874712797.50000012 1996.5000000000002 23.320000000000004 25.500000000000004 21.250000000000004 2006.5000000000002 2081536.0000000002 46623902.500000007 2006.5000000000002 15.250000000000002 4317.5000000000009 369126751.00000006 1.5000000000000002 3.1650000000000005 35319209.000000007 2846.5000000000005 67201841.000000015
decision_type=2 2 2 2 2 2 2 2 2 2 2 2 2 2 2 2 2 2 2 2 2 2 2 2 2 2 2 2 2 2
left_child=2 4 3 6 11 -5 13 25 12 10 14 26 -8 -1 22 -16 -14 -12 19 -13 21 -17 -6 -22 -25 -3 -2 -28 -29 -7
right_child=1 7 -4 5 9 29 8 -9 -10 -11 17 18 16 -15 15 20 -18 -19 -20 -21 23 -23 -24 24 -26 -27 27 28 -30 -31
leaf_value=0.82099792496495838 0.090991338496644189 -0.14883019520548954 0.14017191004449905 0.38786204816064829 -0.064733615150508225 0.2445175289311867 0.67507945269077752 -0.21519487337498999 0.65534156234750984 -0.12408394851184062 0.067088921776712579 0.18992615072321065 1.1100953421050674 0.34571648917449793 -0.023870908988636641 -0.14967151557048514 0.58247291742195006 -0.014362496298981032 0.048891878938598726 -0.017849390342372262 -0.019581335067401222 -0.063451958404200648 -0.12081812108915824 -0.17314509673887138 -0.04443427709385997 -0.18152885250105297 -0.004505029351644963 0.22474984646734184 0.048239430327021576 0.29372629025646441
leaf_weight=341 19842 75103 41911 43802 21578 22468 555 70513 1367 17606 9380 951 2428 777 55748 8411 191 19208 13766 36592 13710 8428 15562 3946 8434 40392 9636 2108 25307 23293
leaf_count=341 19842 75103 41911 43802 21578 22468 555 70513 1367 17606 9380 951 2428 777 55748 8411 191 19208 13766 36592 13710 8428 15562 3946 8434 40392 9636 2108 25307 23293
internal_value=0 -0.083125 0.290412 0.356539 -0.0203366 0.32742 0.8174 -0.181089 0.897839 -0.0525191 -0.0448553 0.0337991 1.00228 0.490682 -0.0568991 -0.0451054 1.07162 0.0123625 0.0039081 -0.0125862 -0.0726807 -0.106518 -0.0882335 -0.0508413 -0.0854596 -0.160266 0.0607563 0.0445645 0.0618117 0.269565
internal_weight=0 476221 137133 95222 290213 89563 5659 186008 4541 182011 164405 108202 3174 1118 135817 98677 2619 28588 51309 37543 42929 16839 37140 26090 12380 115495 56893 37051 27415 45761
internal_count=613354 476221 137133 95222 290213 89563 5659 186008 4541 182011 164405 108202 3174 1118 135817 98677 2619 28588 51309 37543 42929 16839 37140 26090 12380 115495 56893 37051 27415 45761
is_linear=0
shrinkage=0.05


Tree=12
num_leaves=31
num_cat=0
split_feature=1 4 1 6 1 6 2 1 4 3 6 1 0 5 0 0 5 6 0 0 6 2 0 9 0 1 6 0 0 0
split_gain=5.36309e+06 1.05745e+06 491829 461315 183633 113234 53687 49558.3 47688.2 41517.7 33153.6 28741.5 36073 25995.4 21344.3 19327.9 17795.1 16820.3 14041.3 13595.5 13804.7 15348.2 13299.6 12925.8 18164.7 11433 10760.4 13195.6 10760.3 26779.8
threshold=2.5000000000000004 1.0000000180025095e-35 1.0000000180025095e-35 1960.5000000000002 11.165000000000001 1995.5000000000002 16.500000000000004 5.5000000000000009 2.5000000000000004 4.5000000000000009 2004.5000000000002 81.500000000000014 1304302738.5000002 18.500000000000004 4366274.0000000009 874712797.50000012 19.500000000000004 1991.5000000000002 268106148.50000003 47603837.000000007 2006.5000000000002 31.500000000000004 79784808.500000015 5291.0000000000009 300124101.50000006 44.250000000000007 2003.5000000000002 76749054.000000015 700166092.50000012 346119851.00000006
decision_type=2 2 2 2 2 2 2 2 2 2 2 2 2 2 2 2 2 2 2 2 2 2 2 2 2 2 2 2 2 2
left_child=2 4 3 6 7 22 15 26 -3 13 14 12 17 -8 -9 -1 -15 -6 -12 20 21 -19 -5 -21 -25 -14 27 -2 29 -24
right_child=1 8 -4 5 11 -7 9 10 -10 -11 18 -13 25 16 -16 -17 -18 19 -20 23 -22 -23 28 24 -26 -27 -28 -29 -30 -31
leaf_value=0.77997039063289819 0.0018890617421175777 -0.15225258951721485 0.13316328984335854 0.25635708664039275 -0.11066940104407984 0.25231757262205917 0.64132552748327853 0.16606672415105475 -0.20443513081959741 0.62257447131114363 0.014205861121072409 -0.11787974582630628 0.015488714593465078 1.0545906280567854 -0.031414054869357444 0.32843065626986395 0.55334920121737186 -0.14915640431348276 0.085934270093612625 -0.011601383940174511 -0.039318843249163932 -0.068909761821914689 0.35980809818252441 -0.11304454531231706 -0.0094261841529832864 -0.048876420407962161 0.089782287805386246 0.063577139893878212 0.34370832785912092 0.47449169854364448
leaf_weight=341 13017 115495 41911 2663 16651 42826 555 1405 70513 1367 19424 17606 22599 2428 52344 777 191 9452 10517 24058 15970 16122 17355 9800 7441 9931 17923 25953 19516 7203
leaf_count=341 13017 115495 41911 2663 16651 42826 555 1405 70513 1367 19424 17606 22599 2428 52344 777 191 9452 10517 24058 15970 16122 17355 9800 7441 9931 17923 25953 19516 7203
internal_value=0 -0.0789688 0.275892 0.338712 -0.0193197 0.311049 0.776531 0.0217129 -0.172034 0.852947 -0.00276387 -0.0578714 -0.0498691 0.952165 -0.0262519 0.466154 1.01804 -0.0648135 0.039401 -0.0555967 -0.0757922 -0.0985684 0.364866 -0.0352813 -0.0683242 -0.00416115 0.0577184 0.0429717 0.371422 0.393445
internal_weight=0 476221 137133 95222 290213 89563 5659 140583 186008 4541 83690 149630 132024 3174 53749 1118 2619 99494 29941 82843 41544 25574 46737 41299 17241 32530 56893 38970 44074 24558
internal_count=613354 476221 137133 95222 290213 89563 5659 140583 186008 4541 83690 149630 132024 3174 53749 1118 2619 99494 29941 82843 41544 25574 46737 41299 17241 32530 56893 38970 44074 24558
is_linear=0
shrinkage=0.05


Tree=13
num_leaves=31
num_cat=0
split_feature=1 1 1 6 1 6 1 6 6 2 3 0 5 0 1 6 0 0 5 6 10 1 0 2 0 2 6 0 2 0
split_gain=4.84019e+06 666463 443876 416334 128324 102194 65387.3 85842.4 54432.5 48454.6 37469.7 34836.3 23460.7 22962.2 22089 18127.7 17441.4 16509.4 16060 15763.3 14593.2 13187 12007.2 11933 11420.9 11067.4 10832.7 38069 10632.3 10596.6
threshold=2.5000000000000004 17.250000000000004 1.0000000180025095e-35 1960.5000000000002 7.2500000000000009 1995.5000000000002 50.500000000000007 2002.5000000000002 2003.5000000000002 16.500000000000004 4.5000000000000009 514957091.50000006 15.500000000000002 505459587.00000006 3.1650000000000005 2003.5000000000002 874712797.50000012 21719997.500000004 25.500000000000004 2001.5000000000002 655.50000000000011 193.50000000000003 76749054.000000015 66.500000000000014 3277564.0000000005 53.500000000000007 1993.5000000000002 113329128.50000001 15.500000000000002 1031602875.0000001
decision_type=2 2 2 2 2 2 2 2 2 2 2 2 2 2 2 2 2 2 2 2 2 2 2 2 2 2 2 2 2 2
left_child=2 4 3 9 14 22 7 26 20 16 12 -9 -11 -10 -2 -16 -1 -17 29 -8 24 -21 -5 25 -6 -13 -3 -28 -18 -14
right_child=1 6 -4 5 8 -7 19 11 13 10 -12 23 18 -15 15 17 28 -19 -20 21 -22 -23 -24 -25 -26 -27 27 -29 -30 -31
leaf_value=0.74094624701512524 0.083587503524548037 -0.15535887404771609 0.12650515657434802 0.24099456306148626 0.1326920760144428 0.23970171492342379 -0.18837165628492936 -0.090670518173518816 -0.019996832387563557 0.60925992828231679 0.59144575063904969 -0.0013165258797417133 1.0430695009935136 0.064821904987484413 0.0060926341534454295 0.0093728826021387372 0.47772829504964531 0.091603563784885614 0.52568179400179404 -0.1356298730715795 -0.13412926897376953 -0.18489308082990516 0.3527029660645094 0.04905205349366086 -0.064843134532643065 -0.074781019789603873 -0.14743310218437003 -0.0078781109337361255 0.10557859564103143 0.73709044587721528
leaf_weight=341 19842 49012 41911 2544 741 42826 25428 49369 31495 555 1367 10867 2101 10687 48080 10248 431 15094 191 79217 8048 16396 44193 5162 58489 9705 22064 6277 346 327
leaf_count=341 19842 49012 41911 2544 741 42826 25428 49369 31495 555 1367 10867 2101 10687 48080 10248 431 15094 191 79217 8048 16396 44193 5162 58489 9705 22064 6277 346 327
internal_value=0 -0.0750203 0.262097 0.321777 -0.00631702 0.295497 -0.125945 -0.104161 -0.0430368 0.737703 0.810299 -0.0660847 0.904556 0.00149238 0.0367794 0.0241297 0.442839 0.0583505 0.967134 -0.153383 -0.0709557 -0.144078 0.346622 -0.0189185 -0.0623719 -0.035974 -0.14113 -0.116524 0.312009 1.00186
internal_weight=0 476221 137133 95222 202724 89563 273497 152456 109460 5659 4541 75103 3174 42182 93264 73422 1118 25342 2619 121041 67278 95613 46737 25734 59230 20572 77353 28341 777 2428
internal_count=613354 476221 137133 95222 202724 89563 273497 152456 109460 5659 4541 75103 3174 42182 93264 73422 1118 25342 2619 121041 67278 95613 46737 25734 59230 20572 77353 28341 777 2428
is_linear=0
shrinkage=0.05


Tree=14
num_leaves=31
num_cat=0
split_feature=1 4 1 1 10 9 10 4 3 5 1 5 0 1 0 2 0 4 0 9 9 0 10 0 8 0 0 0 9 7
split_gain=4.36827e+06 888600 400598 146332 119604 75253 276618 40840.9 40719.5 45672.5 40489.1 24815.7 23834.1 23298.3 29746.9 21667.3 13093.8 12932.5 11924 17055.2 14367.8 11688.8 11455.6 10648.7 16750.7 10516.1 9805.26 27294.9 18318.9 9776.12
threshold=2.5000000000000004 1.0000000180025095e-35 1.0000000180025095e-35 11.165000000000001 287.50000000000006 20330.500000000004 741.50000000000011 1.5000000000000002 4.5000000000000009 15.500000000000002 5.5000000000000009 25.500000000000004 1376576965.5000002 81.500000000000014 1382719326.0000002 60.500000000000007 67201841.000000015 3.5000000000000004 855129281.50000012 18467.500000000004 18235.500000000004 1117389754.0000002 206.50000000000003 921962250.00000012 2.5000000000000004 40944153.000000007 700166092.50000012 274833128.00000006 10253.500000000002 1.7500000000000002
decision_type=2 2 2 2 2 2 2 2 2 2 2 2 2 2 2 2 2 2 2 2 2 2 2 2 2 2 2 2 2 2
left_child=2 3 4 10 16 6 26 -3 9 -8 -2 29 15 14 -5 22 -1 -9 20 -20 -10 23 -12 -21 -25 -4 27 -6 -29 -11
right_child=1 7 25 13 5 -7 8 17 18 11 12 -13 -14 -15 -16 -17 -18 -19 19 21 -22 -23 -24 24 -26 -27 -28 28 -30 -31
leaf_value=0.20654083883315635 0.052584079622355999 -0.12811085250812315 0.074456588250582878 -0.055617826582409852 0.31255627925555096 0.23731908738276433 0.49203920119981337 -0.16097447640055959 1.3469747824841236 0.8720942667260756 -0.0010122606925219017 0.45544938056918655 0.097035257826854862 -0.10503187881780324 0.0038610702663548721 0.026940608828622217 0.27312382516243477 -0.19544377397695997 0.29051290155242399 0.51124081055714776 0.63014202656110851 0.085300370758655028 -0.048905014581720779 1.2521149083683569 0.60383284464745546 0.13389906515531708 0.30345112188642598 0.51972083514470035 0.36748912740149753 1.0781085691322534
leaf_weight=21976 56893 75103 9673 105790 15867 12569 917 63006 83 1489 21803 281 5655 17606 26234 27014 11120 47899 759 609 443 102 29218 155 279 32238 19145 3131 5358 939
leaf_count=21976 56893 75103 9673 105790 15867 12569 917 63006 83 1489 21803 281 5655 17606 26234 27014 11120 47899 759 609 443 102 29218 155 279 32238 19145 3131 5358 939
internal_value=0 -0.0712693 0.248992 -0.0165896 0.305688 0.346588 0.374302 -0.156582 0.690905 0.797042 0.0200394 0.900286 -0.00208471 -0.0510039 -0.043799 -0.00926768 0.228912 -0.175861 0.532529 0.474313 0.743254 0.596151 -0.0284388 0.64611 0.835362 0.12018 0.330226 0.351272 0.423637 0.951768
internal_weight=0 476221 137133 290213 95222 62126 49557 186008 6056 3626 140583 2709 83690 149630 132024 78035 33096 110905 2430 1904 526 1145 51021 1043 434 41911 43501 24356 8489 2428
internal_count=613354 476221 137133 290213 95222 62126 49557 186008 6056 3626 140583 2709 83690 149630 132024 78035 33096 110905 2430 1904 526 1145 51021 1043 434 41911 43501 24356 8489 2428
is_linear=0
shrinkage=0.05


Tree=15
num_leaves=31
num_cat=0
split_feature=1 4 1 6 1 6 2 4 6 5 5 1 0 0 0 0 6 1 0 4 0 6 6 1 7 2 8 0 0 1
split_gain=3.91805e+06 703526 520998 320772 89252.8 86187.2 38322.2 36269.2 29279.3 24350.7 41685.4 21434.4 27593.3 20465.6 18146.4 15433 14503 14413.9 13300.5 11821.5 11494.8 15269 14646.6 13414.1 10949.6 9699.48 9548.67 10316.6 9206.53 8440.04
threshold=3.1650000000000005 1.0000000180025095e-35 1.0000000180025095e-35 1960.5000000000002 11.165000000000001 1992.5000000000002 16.500000000000004 1.5000000000000002 2003.5000000000002 18.500000000000004 19.500000000000004 81.500000000000014 1304302738.5000002 268106148.50000003 4852367.5000000009 874712797.50000012 1991.5000000000002 5.5000000000000009 898119495.00000012 3.5000000000000004 99844846.000000015 2004.5000000000002 2009.5000000000002 26.250000000000004 4.7500000000000009 32.500000000000007 5.5000000000000009 1430934300.0000002 976987393.00000012 16.250000000000004
decision_type=2 2 2 2 2 2 2 2 2 2 2 2 2 2 2 2 2 2 2 2 2 2 2 2 2 2 2 2 2 2
left_child=2 4 3 6 8 -5 15 -3 14 -8 24 12 16 -10 -2 -1 29 -16 -4 -9 21 23 -22 25 28 -18 27 -14 -11 -6
right_child=1 7 18 5 11 -7 9 19 13 10 -12 -13 26 -15 17 -17 20 -19 -20 -21 22 -23 -24 -25 -26 -27 -28 -29 -30 -31
leaf_value=0.67873492310719574 0.1742931444096063 -0.12196787422444999 0.094297704743823638 0.31671109319731311 -0.06065949303571766 0.21852412591159145 0.54725442823008863 -0.15273063441070467 0.018534855876566333 0.91765094337355668 0.47011600026742811 -0.10020003016763429 -0.079988730822094761 0.090745964362557427 0.018706064157601364 0.26864722073864494 -0.1171055267244737 -0.028450210508521392 0.16785551347973546 -0.18567971903179412 0.0010251271314524663 -0.036275579211944901 -0.082912989045627092 -0.15416384824800278 1.1457564632123418 -0.040077934518616382 0.024197880616806909 0.0038711624836499712 0.66785791129055916 -0.13182015714677958
leaf_weight=329 1317 75149 54590 43714 8182 45731 1355 63063 31297 1483 726 17509 6171 14293 24131 758 6352 49334 6925 47899 21067 31698 6899 5967 389 11461 17244 9040 491 8491
leaf_count=329 1317 75149 54590 43714 8182 45731 1355 63063 31297 1483 726 17509 6171 14293 24131 758 6352 49334 6925 47899 21067 31698 6899 5967 389 11461 17244 9040 491 8491
internal_value=0 -0.0739688 0.215938 0.28936 -0.0224816 0.266511 0.65888 -0.148789 0.00959106 0.723971 0.801489 -0.0482054 -0.0413384 0.0411739 -0.00966306 0.392768 -0.0543261 -0.0129608 0.102578 -0.166954 -0.0458196 -0.0589954 -0.0196818 -0.0892802 0.903298 -0.0675455 -0.00127398 -0.0301502 0.855519 -0.0968992
internal_weight=0 456564 156491 94976 270453 89445 5531 186111 120372 4444 3089 150081 132572 45590 74782 1087 100117 73465 61515 110962 83444 55478 27966 23780 2363 17813 32455 15211 1974 16673
internal_count=613055 456564 156491 94976 270453 89445 5531 186111 120372 4444 3089 150081 132572 45590 74782 1087 100117 73465 61515 110962 83444 55478 27966 23780 2363 17813 32455 15211 1974 16673
is_linear=0
shrinkage=0.05


Tree=16
num_leaves=31
num_cat=0
split_feature=1 4 1 6 1 6 2 4 3 1 0 5 6 1 6 0 0 1 6 1 4 5 7 0 0 0 6 9 1 0
split_gain=3.54065e+06 724058 319074 289496 119624 78099.6 34586.3 32733 31397.6 28191.1 36875.5 18900.7 17687.6 16485.3 15360.1 29908 13927.7 11827.6 11580.2 10737.8 10668.9 10260 9882.04 9703.71 9679.86 8716.57 21347.8 8553.71 13613 10688.2
threshold=2.5000000000000004 1.0000000180025095e-35 1.0000000180025095e-35 1960.5000000000002 7.2500000000000009 1994.5000000000002 16.500000000000004 1.5000000000000002 5.5000000000000009 47.500000000000007 1376576965.5000002 15.500000000000002 1999.5000000000002 3.1650000000000005 1997.5000000000002 39943294.500000007 874712797.50000012 15.250000000000002 1953.5000000000002 23.320000000000004 3.5000000000000004 19.500000000000004 4.7500000000000009 913126754.00000012 7781659.0000000009 216904948.00000003 1990.5000000000002 3393.5000000000005 6.1650000000000009 262202625.50000003
decision_type=2 2 2 2 2 2 2 2 2 2 2 2 2 2 2 2 2 2 2 2 2 2 2 2 2 2 2 2 2 2
left_child=2 4 3 6 13 -5 16 -3 11 10 12 -8 17 24 -15 -16 -1 -6 -10 -14 -9 22 -13 -4 -2 -19 -27 28 -17 -29
right_child=1 7 23 5 9 -7 8 20 18 -11 -12 21 19 14 15 27 -18 25 -20 -21 -22 -23 -24 -25 -26 26 -28 29 -30 -31
leaf_value=0.6447905765874149 0.16789901291369561 -0.1158694797122958 0.10015971422370853 0.29898626628093927 -0.042048209033082151 0.20552487350615994 0.55454746899665786 -0.14509410311810472 0.79063620383589017 -0.075940294811891892 0.029527103843412179 0.81274331716297843 -0.010880813096048351 -0.0031141171376323782 3.6049539666934967e-05 0.19266960948134304 0.25521484776977499 -0.11853801727833457 0.37395484052385602 -0.049058168511217318 -0.17639572914594817 0.46551296038334594 1.0884686949933404 0.17345098269564435 0.059595609319295376 -0.1155981603461444 0.04932749575914995 0.015268370422709635 -0.018636049824885276 0.10478539290420739
leaf_weight=329 2342 75149 36697 45612 32810 43833 821 63063 206 37613 23843 1974 55643 34801 19755 3599 758 11732 875 27531 47899 179 389 5150 17326 5047 3210 5551 967 8351
leaf_count=329 2342 75149 36697 45612 32810 43833 821 63063 206 37613 23843 1974 55643 34801 19755 3599 758 11732 875 27531 47899 179 389 5150 17326 5047 3210 5551 967 8351
internal_value=0 -0.0643744 0.22421 0.274892 -0.0149952 0.253185 0.625936 -0.14135 0.687773 -0.0369944 -0.0278284 0.763122 -0.0378857 0.0318617 0.0209185 0.0427995 0.373127 -0.0605196 0.453359 -0.0235177 -0.158606 0.830486 0.858134 0.109179 0.072492 -0.0908385 -0.0514815 0.0885431 0.147919 0.0690417
internal_weight=0 476232 136823 94976 290121 89445 5531 186111 4444 197429 159816 3363 135973 92692 73024 38223 1087 52799 1081 83174 110962 2542 2363 41847 19668 19989 8257 18468 4566 13902
internal_count=613055 476232 136823 94976 290121 89445 5531 186111 4444 197429 159816 3363 135973 92692 73024 38223 1087 52799 1081 83174 110962 2542 2363 41847 19668 19989 8257 18468 4566 13902
is_linear=0
shrinkage=0.05


Tree=17
num_leaves=31
num_cat=0
split_feature=1 4 1 6 1 6 2 4 3 1 6 1 1 5 0 0 6 0 4 0 0 0 0 6 0 10 1 1 6 0
split_gain=3.19543e+06 653462 287965 261271 108205 70586.5 31213.8 29541.5 28336.4 22515.2 31235.3 19185.5 17304.3 17057.8 12570.1 12560.2 10451.2 10407.9 9628.71 9558.55 9419.69 9264.41 9055.46 12126.1 8753.65 20515 11691 9026.96 8679.57 8205.11
threshold=2.5000000000000004 1.0000000180025095e-35 1.0000000180025095e-35 1960.5000000000002 8.2500000000000018 1995.5000000000002 16.500000000000004 1.5000000000000002 5.5000000000000009 60.500000000000007 2002.5000000000002 5.5000000000000009 21.250000000000004 15.500000000000002 874712797.50000012 505459587.00000006 1953.5000000000002 82713613.500000015 3.5000000000000004 1031602875.0000001 46623902.500000007 525442775.00000006 262202625.50000003 1973.5000000000002 143850129.00000003 334.50000000000006 24.320000000000004 16.250000000000004 1998.5000000000002 700166092.50000012
decision_type=2 2 2 2 2 2 2 2 2 2 2 2 2 2 2 2 2 2 2 2 2 2 2 2 2 2 2 2 2 2
left_child=2 4 3 6 11 17 14 -3 13 10 24 22 15 -8 -1 -12 -10 -5 -9 -15 -4 -14 28 -24 26 -26 -6 -27 -2 -19
right_child=1 7 20 5 9 -7 8 18 16 -11 12 -13 21 19 -16 -17 -18 29 -20 -21 -22 -23 23 -25 25 27 -28 -29 -30 -31
leaf_value=0.61255602719903424 0.00046365645631969981 -0.11007600533938891 0.063160251607685666 0.18904977312232771 -0.06208927771988304 0.19418521039212266 0.52682033161588471 -0.13783939764604336 0.7511044174143412 -0.080241461017747373 -0.0066191534818598229 0.0033470612810392025 -0.052045724532509233 0.82680150704932887 0.24245412182996648 0.051967448213372049 0.35525709250313897 0.3083244188301531 -0.1675759462270536 0.54052777219386339 0.11759479125236282 -0.0085096031527681689 0.013312370376340275 0.095489908168263318 0.020625300893831244 -0.047046105358943595 -0.14039887453786179 -0.11815539544585606 0.051012010051426207 0.26478378806791886
leaf_weight=329 14582 75149 10666 2767 22738 42828 821 63063 206 26562 33055 51145 27985 2206 758 12649 875 24423 47899 336 31181 21691 6380 15146 9602 16037 6030 6184 20335 19427
leaf_count=329 14582 75149 10666 2767 22738 42828 821 63063 206 26562 33055 51145 27985 2206 758 12649 875 24423 47899 336 31181 21691 6380 15146 9602 16037 6030 6184 20335 19427
internal_value=0 -0.0611557 0.212999 0.261148 -0.0142455 0.240526 0.594639 -0.134282 0.653384 -0.0376886 -0.0304418 0.0255279 -0.0126079 0.724966 0.354472 0.00959522 0.430691 0.2831 -0.150676 0.788962 0.10372 -0.0330357 0.0456268 0.0711337 -0.0585153 -0.0404458 -0.0785036 -0.0668355 0.0299021 0.289034
internal_weight=0 476232 136823 94976 290121 89445 5531 186111 4444 182533 155971 107588 95380 3363 1087 45704 1081 46617 110962 2542 41847 49676 56443 21526 60591 31823 28768 22221 34917 43850
internal_count=613055 476232 136823 94976 290121 89445 5531 186111 4444 182533 155971 107588 95380 3363 1087 45704 1081 46617 110962 2542 41847 49676 56443 21526 60591 31823 28768 22221 34917 43850
is_linear=0
shrinkage=0.05


Tree=18
num_leaves=31
num_cat=0
split_feature=1 4 1 6 1 6 5 5 4 6 1 0 0 0 0 1 0 10 0 9 2 1 1 10 0 0 7 7 6 0
split_gain=2.88499e+06 516293 381082 237410 67074.8 59283.4 28095.3 55661.4 26827.6 23530.5 16892 18758.1 16554.9 16457 11370.9 10808.3 10727.4 10417.4 17660.3 12275.5 14702.7 10293.8 10104.7 9996.04 15695.3 14357.8 22316.7 10069.2 10157.4 9037.93
threshold=3.1650000000000005 1.0000000180025095e-35 1.0000000180025095e-35 1961.5000000000002 11.165000000000001 1995.5000000000002 18.500000000000004 19.500000000000004 2.5000000000000004 2003.5000000000002 114.50000000000001 1304302738.5000002 4366274.0000000009 268106148.50000003 1117389754.0000002 5.5000000000000009 898119495.00000012 282.50000000000006 99844846.000000015 1448.0000000000002 26.500000000000004 22.250000000000004 44.250000000000007 767.50000000000011 855129281.50000012 950001255.00000012 2.7500000000000004 6.7500000000000009 1954.5000000000002 32791910.000000004
decision_type=2 2 2 2 2 2 2 2 2 2 2 2 2 2 2 2 2 2 2 2 2 2 2 2 2 2 2 2 2 2
left_child=2 4 3 6 9 29 14 -8 -3 12 11 17 -2 -11 23 -14 -4 18 19 -6 -21 -19 -13 24 -1 -25 -27 28 -28 -5
right_child=1 8 16 5 10 -7 7 -9 -10 13 -12 22 15 -15 -16 -17 -18 21 -20 20 -22 -23 -24 25 -26 26 27 -29 -30 -31
leaf_value=0.7097931668936126 0.16688149751856324 -0.11275119038242776 0.080908974540781733 0.099349672201290817 -0.031090062799869086 0.1844759561929358 0.77580681089319725 0.36004822861455099 -0.1518896942615855 0.016450118665082402 -0.10338329116488001 0.01443800523681563 0.015449326979743973 0.081204112018288158 0.073664279741661579 -0.025385312943781962 0.14696935324548385 -0.053904867045752362 0.00022840928086406698 -0.1227335545832281 -0.04682185324643403 -0.12077940406768509 -0.040206432632209896 0.46798050230284804 0.27786168770879588 0.070232224278151997 0.50600271651873718 1.666159046263922 1.3736001757844802 0.2693165744642782
leaf_weight=259 1317 115654 54590 796 29275 42828 2363 1221 70457 31297 10324 22552 24131 14293 214 49334 6925 18472 21244 10860 15457 8358 13539 1018 1119 64 74 63 62 44895
leaf_count=259 1317 115654 54590 796 29275 42828 2363 1221 70457 31297 10324 22552 24131 14293 214 49334 6925 18472 21244 10860 15457 8358 13539 1018 1119 64 74 63 62 44895
internal_value=0 -0.0634726 0.185296 0.24809 -0.0193656 0.22674 0.540786 0.634166 -0.127568 0.00843819 -0.0416655 -0.0371064 -0.00882256 0.0367513 0.424296 -0.0119724 0.0883457 -0.0479147 -0.0385486 -0.0533669 -0.0781477 -0.0747374 -0.00606104 0.452515 0.359045 0.553064 0.882397 1.1436 0.901525 0.266356
internal_weight=0 456564 156491 94976 270453 88519 6457 3584 186111 120372 150081 139757 74782 45590 2873 73465 61515 103666 76836 55592 26317 26830 36091 2659 1378 1281 263 199 136 45691
internal_count=613055 456564 156491 94976 270453 88519 6457 3584 186111 120372 150081 139757 74782 45590 2873 73465 61515 103666 76836 55592 26317 26830 36091 2659 1378 1281 263 199 136 45691
is_linear=0
shrinkage=0.05


Tree=19
num_leaves=31
num_cat=0
split_feature=1 4 1 6 1 6 5 5 4 1 6 0 6 0 0 0 1 10 0 0 7 7 6 7 2 1 0 0 0 6
split_gain=2.60625e+06 531642 233137 214262 88915.9 53503.3 25356.2 50234.4 24971 21780.8 28022.9 15282.8 12981.3 11071.2 15513.2 10262.2 9560.96 9021.57 14164.5 12957.9 20140.8 9087.42 9167.02 8837.2 8837.02 8672.43 8430.42 9482.97 22070.2 16140
threshold=2.5000000000000004 1.0000000180025095e-35 1.0000000180025095e-35 1961.5000000000002 7.2500000000000009 1995.5000000000002 18.500000000000004 19.500000000000004 1.5000000000000002 47.500000000000007 2002.5000000000002 505459587.00000006 2003.5000000000002 5458317.5000000009 26130914.000000004 1117389754.0000002 5.5000000000000009 767.50000000000011 855129281.50000012 950001255.00000012 2.7500000000000004 6.7500000000000009 1954.5000000000002 4.7500000000000009 50.500000000000007 23.320000000000004 69416701.000000015 700166092.50000012 346119851.00000006 1984.5000000000002
decision_type=2 2 2 2 2 2 2 2 2 2 2 2 2 2 2 2 2 2 2 2 2 2 2 2 2 2 2 2 2 2
left_child=2 4 3 6 12 26 15 23 -3 10 -6 25 13 -2 -15 17 -16 18 -1 -19 -21 22 -22 -8 -24 -12 -5 28 -28 -30
right_child=1 8 -4 5 9 -7 7 -9 -10 -11 11 -13 -14 14 16 -17 -18 19 -20 20 21 -23 24 -25 -26 -27 27 -29 29 -31
leaf_value=0.67429569773250142 0.19667412155223421 -0.098934646529868622 0.094036175494957824 0.15884291553676816 -0.048456602637795713 0.17525215904240829 0.69409286707164131 0.34204581641057397 -0.13626185488767933 -0.066117599044506509 -0.0078443509186595217 0.022069350686293857 0.054231169100856937 -0.063020418790700111 0.036606207595284802 0.069981058847124342 -0.0062942510725733829 0.44458149046232753 0.26396860867552296 0.066720635443925855 0.4807025656506822 1.5828511415965973 1.7633350919454527 0.9548347041949361 0.52760811681332798 -0.048377916483460418 0.24809565575080086 0.23081330549658319 0.28253417981034223 0.43273384251892932
leaf_weight=259 822 75149 41847 2258 67045 42828 1974 1221 110962 37613 41652 31803 30450 6203 34325 214 20892 1018 1119 64 74 63 39 389 23 19316 17736 18501 3872 3324
leaf_count=259 822 75149 41847 2258 67045 42828 1974 1221 110962 37613 41652 31803 30450 6203 34325 214 20892 1018 1119 64 74 63 39 389 23 19316 17736 18501 3872 3324
internal_value=0 -0.0552307 0.192363 0.235686 -0.0129184 0.215403 0.513746 0.602458 -0.12119 -0.0318848 -0.023828 -0.00602914 0.0274792 0.0143916 0.011952 0.40308 0.0203743 0.429889 0.341091 0.52541 0.838277 1.08642 0.856449 0.737017 1.30492 -0.0206863 0.253038 0.257935 0.27806 0.351915
internal_weight=0 476232 136823 94976 290121 88519 6457 3584 186111 197429 159816 92771 92692 62242 61420 2873 55217 2659 1378 1281 263 199 136 2363 62 60968 45691 43433 24932 7196
internal_count=613055 476232 136823 94976 290121 88519 6457 3584 186111 197429 159816 92771 92692 62242 61420 2873 55217 2659 1378 1281 263 199 136 2363 62 60968 45691 43433 24932 7196
is_linear=0
shrinkage=0.05


Tree=20
num_leaves=31
num_cat=0
split_feature=1 4 1 6 1 6 5 5 4 0 1 0 2 6 0 1 8 6 7 0 0 9 6 0 9 0 6 1 0 0
split_gain=2.37091e+06 418196 315817 202432 56454.6 49857.8 25582.1 49008.1 22905.7 21307.5 14274.7 15420.8 13700.8 11702.7 17272.6 10559.3 10424.2 10196.5 10130.6 9613.4 9382.86 20918.5 9121.42 9129.92 10678.7 13853.5 10060.4 12437.3 8920.21 8880.62
threshold=3.1650000000000005 1.0000000180025095e-35 1.0000000180025095e-35 1961.5000000000002 11.165000000000001 1992.5000000000002 18.500000000000004 19.500000000000004 2.5000000000000004 1304302738.5000002 114.50000000000001 1304302738.5000002 55.500000000000007 1953.5000000000002 976987393.00000012 5.5000000000000009 9.5000000000000018 1951.5000000000002 9.5000000000000018 850073343.50000012 31040027.000000004 2571.0000000000005 1991.5000000000002 47603837.000000007 5291.0000000000009 300124101.50000006 2006.5000000000002 26.250000000000004 913126754.00000012 1634702.5000000002
decision_type=2 2 2 2 2 2 2 2 2 2 2 2 2 2 2 2 2 2 2 2 2 2 2 2 2 2 2 2 2 2
left_child=2 4 3 6 9 -5 13 -8 -3 12 11 22 15 14 -1 20 -15 -16 -13 -9 -2 -22 -6 26 -25 -26 27 -24 -4 -17
right_child=1 8 28 5 10 -7 7 19 -10 -11 -12 18 -14 16 17 29 -18 -19 -20 -21 21 -23 23 24 25 -27 -28 -29 -30 -31
leaf_value=0.45791314755685442 -0.044145126405244595 -0.10139655709230243 0.073581615085582183 0.24437986489921659 -0.077772114730237318 0.16929078899304095 0.71632873997933344 0.5914401086171468 -0.13759267323325361 0.082881708003775978 -0.095178123511798052 0.01932013447985545 0.025119298741002313 0.3352639973092279 0.79083794127119356 0.079859878669887724 1.2728540301322937 1.9004877451303845 -0.033643314504332909 0.25384580190307998 0.21350399829815322 0.017855456682836428 -0.052675570602503621 -0.00030361475303076937 -0.08983793038958178 -0.0018216894876108081 -0.023910543999301703 -0.13154642748695497 0.13684090724523951 -0.028433639540804891
leaf_weight=268 4790 115429 55397 42727 16608 45806 2374 270 70344 8770 10226 18962 40599 2507 47 1972 30 37 17235 963 1498 15529 19046 25446 10016 8075 17078 6777 6196 47328
leaf_count=268 4790 115429 55397 42727 16608 45806 2374 270 70344 8770 10226 18962 40599 2507 47 1972 30 37 17235 963 1498 15529 19046 25446 10016 8075 17078 6777 6196 47328
internal_value=0 -0.0573644 0.168136 0.225297 -0.0176313 0.20553 0.494706 0.583506 -0.115102 0.00783592 -0.0381602 -0.0339728 0.00194463 0.383835 0.654 -0.0112852 0.346351 1.27961 -0.00589812 0.327772 0.0176766 0.0350682 -0.0438346 -0.037314 -0.0211832 -0.0505515 -0.0536839 -0.0733745 0.0799452 -0.0241019
internal_weight=0 455728 156622 95029 269955 88533 6496 3607 185773 120486 149469 139243 111716 2889 352 71117 2537 84 36197 1233 21817 17027 103046 86438 43537 18091 42901 25823 61593 49300
internal_count=612350 455728 156622 95029 269955 88533 6496 3607 185773 120486 149469 139243 111716 2889 352 71117 2537 84 36197 1233 21817 17027 103046 86438 43537 18091 42901 25823 61593 49300
is_linear=0
shrinkage=0.05


Tree=21
num_leaves=31
num_cat=0
split_feature=1 4 1 6 1 6 10 4 1 0 3 0 2 8 6 6 0 0 0 1 0 10 0 0 0 6 2 1 2 4
split_gain=2.13993e+06 431367 194792 182695 74896.2 45039.6 21640.4 21189.9 19091.5 24199.9 16684.6 16602.2 14589.8 14052.8 11579.8 11519.5 9399.61 13146.2 8158.52 7832.23 8804.54 20409.4 7636.32 9100.9 20425.4 14271.1 8371.64 7593.04 7443.88 7359.3
threshold=2.5000000000000004 1.0000000180025095e-35 1.0000000180025095e-35 1961.5000000000002 7.2500000000000009 1995.5000000000002 767.50000000000011 3.5000000000000004 47.500000000000007 1388149021.0000002 4.5000000000000009 859935524.00000012 85.500000000000014 9.5000000000000018 2001.5000000000002 2003.5000000000002 3277564.0000000005 25434611.500000004 40944153.000000007 15.250000000000002 163880468.00000003 319.50000000000006 82713613.500000015 700166092.50000012 274833128.00000006 1984.5000000000002 17.500000000000004 23.320000000000004 30.500000000000004 1.5000000000000002
decision_type=2 2 2 2 2 2 2 2 2 2 2 2 2 2 2 2 2 2 2 2 2 2 2 2 2 2 2 2 2 2
left_child=2 4 3 6 15 22 11 29 9 14 -8 -1 13 -13 19 16 -2 -18 -4 -6 -21 -22 -5 24 -24 -26 -27 -16 -10 -3
right_child=1 7 18 5 8 -7 10 -9 28 -11 -12 12 -14 -15 27 -17 17 -19 -20 20 21 -23 23 -25 25 26 -28 -29 -30 -31
leaf_value=0.57761118963835312 0.18346606198042389 -0.088812983858519781 0.04439431217220037 0.14914976632313806 -0.031242889839075139 0.15848193549114231 0.62794188669807205 -0.13807990809189188 -0.032104203128773157 0.026250362375168285 0.41420298370345932 0.22581644390372993 1.1879668495871805 0.70428709089756014 -0.0049054301640681121 0.05046420078288838 -0.060276792620155319 0.018279275632169755 0.096749934949310779 -0.097116079522875209 0.038186856878710811 -0.093923604363555527 0.22038281211872693 0.20849988380209844 0.26414940020908845 0.21617886292082922 0.42694554618811043 -0.038487862436876991 -0.07833971269143708 -0.11198139802694834
leaf_weight=657 798 74847 9669 2755 37470 42912 2368 47694 13774 22629 1486 1773 44 168 49377 30518 5890 55592 32290 12427 5139 6781 15518 18431 5388 560 2969 25537 23657 63232
leaf_count=657 798 74847 9669 2755 37470 42912 2368 47694 13774 22629 1486 1773 44 168 49377 30518 5890 55592 32290 12427 5139 6781 15518 18431 5388 560 2969 25537 23657 63232
internal_value=0 -0.0498796 0.174414 0.214032 -0.0117308 0.195253 0.46997 -0.109347 -0.029192 -0.0216444 0.54553 0.359748 0.287639 0.26723 -0.029571 0.0252982 0.0129666 0.0107536 0.0846851 -0.0455892 -0.0676681 -0.0369676 0.229841 0.235027 0.255036 0.315341 0.3935 -0.0163532 -0.0613258 -0.0994227
internal_weight=0 475362 136988 95029 289589 88533 6496 185773 196791 159360 3854 2642 1985 1941 136731 92798 62280 61482 41959 61817 24347 11920 45621 42866 24435 8917 3529 74914 37431 138079
internal_count=612350 475362 136988 95029 289589 88533 6496 185773 196791 159360 3854 2642 1985 1941 136731 92798 62280 61482 41959 61817 24347 11920 45621 42866 24435 8917 3529 74914 37431 138079
is_linear=0
shrinkage=0.05


Tree=22
num_leaves=31
num_cat=0
split_feature=1 4 1 6 1 6 5 5 4 0 1 0 2 6 0 9 1 2 0 6 6 0 7 6 2 0 0 6 0 6
split_gain=1.93659e+06 339660 255099 164882 46072.3 40665.6 21336 41528.7 19123.9 18539.2 12333.4 14512.9 12124.2 10095.6 15587.9 9630.01 10007.3 9927.64 9241.59 9197.11 8573.38 9157.15 9685.04 9067.32 9965.18 8269.92 8211.2 10571.5 7820.02 7737.49
threshold=3.1650000000000005 1.0000000180025095e-35 1.0000000180025095e-35 1961.5000000000002 11.165000000000001 1992.5000000000002 18.500000000000004 19.500000000000004 3.5000000000000004 1304302738.5000002 81.500000000000014 1388149021.0000002 55.500000000000007 1953.5000000000002 976987393.00000012 16185.500000000002 6.1650000000000009 49.500000000000007 859935524.00000012 1951.5000000000002 1991.5000000000002 44678440.500000007 11.000000000000002 2006.5000000000002 32.500000000000007 850073343.50000012 67201841.000000015 2000.5000000000002 891307836.00000012 1954.5000000000002
decision_type=2 2 2 2 2 2 2 2 2 2 2 2 2 2 2 2 2 2 2 2 2 2 2 2 2 2 2 2 2 2
left_child=2 4 3 6 9 -5 13 -8 -3 12 11 20 15 14 -1 16 17 -2 -15 -16 -6 23 -23 24 -22 -9 -7 -28 -4 -27
right_child=1 8 28 5 10 26 7 25 -10 -11 -12 -13 -14 18 19 -17 -18 -19 -20 -21 21 22 -24 -25 -26 29 27 -29 -30 -31
leaf_value=0.40987037132522819 0.034584567609687707 -0.094451606431975754 0.066108796511385459 0.22057706271443944 -0.07046723265437721 0.1312639316328349 0.64983600208311398 0.53670708479704687 -0.13117591326733469 0.076971031632635453 -0.074102971657438968 0.0045737641908013098 0.023275133628334777 0.48001700968038841 0.72626531073387635 -0.053271855131273707 -0.023484203718685138 -0.030794746143972648 0.25671234134571136 1.7801318194415119 -0.10973814548023818 -0.0094758432613715037 -0.080169978743315537 -0.018912020941673241 -0.043779003063109237 0.51918762630886506 0.2517255645489177 0.1590604658061161 0.12087967053345419 0.15563611557961729
leaf_weight=268 22120 138079 54185 42727 16608 22550 2374 270 47694 8770 17438 25435 40599 610 47 11314 29810 7873 1927 37 9047 44681 5434 15225 15601 180 3651 19605 7408 783
leaf_count=268 22120 138079 54185 42727 16608 22550 2374 270 47694 8770 17438 25435 40599 610 47 11314 29810 7873 1927 37 9047 44681 5434 15225 15601 180 3651 19605 7408 783
internal_value=0 -0.0518451 0.151958 0.203331 -0.0160367 0.18549 0.446471 0.527568 -0.10388 0.00696981 -0.0345822 -0.0293624 0.00147453 0.34522 0.596149 -0.0109709 -0.00296809 0.0174229 0.310404 1.19047 -0.03746 -0.0313683 -0.0171413 -0.0492497 -0.0679892 0.292156 0.152762 0.173608 0.0726963 0.22359
internal_weight=0 455728 156622 95029 269955 88533 6496 3607 185773 120486 149469 132031 111716 2889 352 71117 59803 29993 2537 84 106596 89988 50115 39873 24648 1233 45806 23256 61593 963
internal_count=612350 455728 156622 95029 269955 88533 6496 3607 185773 120486 149469 132031 111716 2889 352 71117 59803 29993 2537 84 106596 89988 50115 39873 24648 1233 45806 23256 61593 963
is_linear=0
shrinkage=0.05


Tree=23
num_leaves=31
num_cat=0
split_feature=1 4 1 6 1 6 5 5 4 6 1 6 6 8 6 4 1 7 7 1 1 4 1 2 2 2 2 1 2 1
split_gain=1.74778e+06 306543 230227 148806 41580.2 36700.7 19255.6 37479.6 18169.5 16674.8 11267.3 11206.1 9111.65 9075.77 7495.22 6647.35 6538.86 6533.65 6444.95 5975.67 12001.6 22795.5 5961.37 7155.53 6892.53 5773.87 9113.4 5268.72 5261.01 5190.1
threshold=3.1650000000000005 1.0000000180025095e-35 1.0000000180025095e-35 1961.5000000000002 11.165000000000001 1992.5000000000002 18.500000000000004 19.500000000000004 1.5000000000000002 2005.5000000000002 95.500000000000014 1991.5000000000002 1953.5000000000002 9.5000000000000018 1970.5000000000002 5.5000000000000009 5.5000000000000009 3.5000000000000004 4.2500000000000009 77.500000000000014 78.500000000000014 4.5000000000000009 21.250000000000004 26.500000000000004 3.5000000000000004 29.500000000000004 26.500000000000004 16.250000000000004 66.500000000000014 43.500000000000007
decision_type=2 2 2 2 2 2 2 2 2 2 2 2 2 2 2 2 2 2 2 2 2 2 2 2 2 2 2 2 2 2
left_child=2 4 3 6 9 -5 12 17 18 14 11 27 -1 -14 -2 19 -16 -8 -3 -10 21 -21 23 24 -13 26 -24 -6 29 -27
right_child=1 8 -4 5 10 -7 7 -9 15 -11 -12 22 13 -15 16 -17 -18 -19 -20 20 -22 -23 25 -25 -26 28 -28 -29 -30 -31
leaf_value=0.56634692710477708 -0.051028426624748296 -0.063447871822839522 0.069061439928745957 0.20954821712025976 -0.038240875410208271 0.14512424188342485 0.57244247585770425 0.27754774532565624 -0.11387572865226397 0.034838593342887129 -0.075841404420919967 0.087989316676473861 0.28453874931327844 1.1593898479143778 0.020595343033078414 -0.13623126150431353 -0.010842666706140654 0.77057735004694272 -0.092936534774827273 -0.1281841585773448 -0.090940433102416285 0.46329675828906852 -0.023185623802438021 0.0040765221261188306 -0.049381762260462009 -0.040046176028635916 0.080437032517099438 -0.094575139525877164 -0.024248173584316531 -0.087810405089255694
leaf_weight=352 8207 33724 61593 42727 8146 45806 1836 1233 62643 36497 13832 985 2507 30 24389 21868 51393 538 41123 382 25749 284 29054 31876 12513 13805 2289 8462 18835 9672
leaf_count=352 8207 33724 61593 42727 8146 45806 1836 1233 62643 36497 13832 985 2507 30 24389 21868 51393 538 41123 382 25749 284 29054 31876 12513 13805 2289 8462 18835 9672
internal_value=0 -0.0492529 0.14436 0.193164 -0.0152349 0.176216 0.424148 0.50119 -0.0986859 0.00662132 -0.0328531 -0.0284692 0.327959 0.294884 -0.00564035 -0.111531 -0.000724939 0.617344 -0.0796498 -0.105465 -0.0855202 0.124039 -0.0231008 -0.0088443 -0.0393573 -0.0318834 -0.015618 -0.0669439 -0.0439321 -0.059724
internal_weight=0 455728 156622 95029 269955 88533 6496 3607 185773 120486 149469 135637 2889 2537 83989 110926 75782 2374 74847 89058 26415 666 119029 45374 13498 73655 31343 16608 42312 23477
internal_count=612350 455728 156622 95029 269955 88533 6496 3607 185773 120486 149469 135637 2889 2537 83989 110926 75782 2374 74847 89058 26415 666 119029 45374 13498 73655 31343 16608 42312 23477
is_linear=0
shrinkage=0.05


Tree=24
num_leaves=31
num_cat=0
split_feature=1 4 1 6 1 6 5 5 4 1 0 2 8 0 9 9 0 2 0 0 0 0 6 0 6 10 8 10 0 7
split_gain=1.57749e+06 316339 141420 134297 55323.9 33306.2 17378.1 33825.3 16398 15364.7 18561.4 13320.3 10120.3 9158.26 16284.8 10557.8 8798.67 11345.3 8616.56 8316.42 8383.64 17926.4 16574.6 7659.12 7777.12 9531.21 7627.73 7904.04 11720.2 16256.2
threshold=2.5000000000000004 1.0000000180025095e-35 1.0000000180025095e-35 1961.5000000000002 7.2500000000000009 1996.5000000000002 18.500000000000004 19.500000000000004 1.5000000000000002 21.250000000000004 1369196148.5000002 24.500000000000004 4.5000000000000009 290151064.00000006 4367.5000000000009 6983.5000000000009 48607836.000000007 32.500000000000007 1117389754.0000002 76749054.000000015 700166092.50000012 369126751.00000006 1984.5000000000002 976987393.00000012 1954.5000000000002 767.50000000000011 9.5000000000000018 767.50000000000011 950001255.00000012 2.7500000000000004
decision_type=2 2 2 2 2 2 2 2 2 2 2 2 2 2 2 2 2 2 2 2 2 2 2 2 2 2 2 2 2 2
left_child=2 4 3 6 12 19 18 23 -3 10 11 -6 -2 14 16 -15 -11 -18 26 -5 21 -21 -23 -8 -25 -26 27 -1 -29 -30
right_child=1 8 -4 5 9 -7 7 -9 -10 13 -12 -13 -14 15 -16 -17 17 -19 -20 20 -22 22 -24 24 25 -27 -28 28 29 -31
leaf_value=0.2422891534629594 0.0085563039804839869 -0.075667265592514035 0.07329476626364427 0.12274462753392201 -0.044748247651173995 0.13470377486058502 0.63462465228331066 0.26367036472561878 -0.105954023067913 -0.061747468344217515 0.048276745562911415 -0.0054047570005559169 0.042462053780845076 0.097361255453749351 -0.11285051571816385 -0.028134482468497164 0.03418066646718633 -0.046855044009833036 0.011534791079042185 0.1948198951041977 0.17656865367265384 0.21998753168548901 0.37525125680470917 0.20841868480046588 0.14430987153734481 0.77624101036960647 1.1428971796200194 0.33886573314666751 0.0075182903380621047 0.92585150916401937
leaf_weight=1339 56913 74847 41959 3565 33428 41428 1844 1233 110926 22075 11348 60359 35885 1749 9674 40117 7164 10877 221 18152 18431 3855 3102 240 84 206 29 1032 63 205
leaf_count=1339 56913 74847 41959 3565 33428 41428 1844 1233 110926 22075 11348 60359 35885 1749 9674 40117 7164 10877 221 18152 18431 3855 3102 240 84 206 29 1032 63 205
internal_value=0 -0.0428263 0.149749 0.183506 -0.0101574 0.167405 0.402941 0.47613 -0.0937516 -0.0251646 -0.0121199 -0.0194277 0.0216677 -0.0401278 -0.0546207 -0.0228918 -0.0405785 -0.0146761 0.311561 0.196165 0.202177 0.220975 0.289217 0.586477 0.418959 0.593199 0.336414 0.327551 0.415371 0.709975
internal_weight=0 475362 136988 95029 289589 88533 6496 3607 185773 196791 105135 93787 92798 91656 49790 41866 40116 18041 2889 47105 43540 25109 6957 2374 530 290 2668 2639 1300 268
internal_count=612350 475362 136988 95029 289589 88533 6496 3607 185773 196791 105135 93787 92798 91656 49790 41866 40116 18041 2889 47105 43540 25109 6957 2374 530 290 2668 2639 1300 268
is_linear=0
shrinkage=0.05


Tree=25
num_leaves=31
num_cat=0
split_feature=1 4 1 6 1 6 0 4 0 5 5 1 0 9 0 6 1 2 1 0 9 0 10 2 0 0 2 6 10 1
split_gain=1.41577e+06 248149 180751 118306 32814.2 26762.2 16121.6 15269.2 14832.6 11909.9 21965.6 10143.6 11308.5 12179 14643.1 11433.7 10929.4 9604.84 8914.62 8693.21 19379.6 7442.65 7291.9 6773.32 6670 6813.15 6408.29 6308.14 6201.02 9309.39
threshold=3.1650000000000005 1.0000000180025095e-35 1.0000000180025095e-35 1961.5000000000002 11.165000000000001 1996.5000000000002 1117389754.0000002 3.5000000000000004 1304302738.5000002 18.500000000000004 19.500000000000004 114.50000000000001 290151064.00000006 4367.5000000000009 43719624.000000007 1973.5000000000002 23.320000000000004 57.500000000000007 5.5000000000000009 35319209.000000007 2909.5000000000005 282537214.00000006 206.50000000000003 66.500000000000014 31040027.000000004 41853523.000000007 4.5000000000000009 1981.5000000000002 47.500000000000007 31.500000000000004
decision_type=2 2 2 2 2 2 2 2 2 2 2 2 2 2 2 2 2 2 2 2 2 2 2 2 2 2 2 2 2 2
left_child=2 4 3 6 8 24 9 -3 17 -1 -11 12 13 14 28 -14 -15 18 19 -2 -21 26 -20 -19 -5 -26 -4 -23 -6 -30
right_child=1 7 21 5 11 -7 -8 -9 -10 10 -12 -13 15 16 -16 -17 -18 23 22 20 -22 27 -24 -25 25 -27 -28 -29 29 -31
leaf_value=0.32429903739513577 -0.04003381100329724 -0.080742060407885202 0.11183954584722718 0.063106082962677543 -0.017834767891077869 0.12804957307252032 0.12764648562424805 -0.11347434686469163 0.068176579618037053 0.56017797571038808 0.28710637397804467 -0.077870471608148861 -0.094853412802729103 -0.042538607922213818 0.0044497566243873587 -0.0022511628831440372 -0.11312541154264417 0.072501225534528299 -5.9119025712343802e-05 0.19421285648140757 0.015583720861562348 0.066108912410245371 -0.038432993754470596 0.012133566166261395 0.43464503566714097 0.18457657385016585 0.041614246189173386 0.11965766707549474 -0.044938705387614498 -0.12228153775389035
leaf_weight=2655 5369 138028 3600 1130 13205 41263 584 48026 8692 2154 1119 10220 3569 15219 24211 50489 8573 5409 21696 1679 15872 16558 28830 32965 274 45981 33280 8235 19474 4862
leaf_count=2655 5369 138028 3600 1130 13205 41263 584 48026 8692 2154 1119 10220 3569 15219 24211 50489 8573 5409 21696 1679 15872 16558 28830 32965 274 45981 33280 8235 19474 4862
internal_value=0 -0.0447496 0.129387 0.1726 -0.0141631 0.157489 0.378295 -0.0891912 0.00526017 0.402987 0.466818 -0.0297866 -0.0262665 -0.0375791 -0.0258687 -0.00836492 -0.0679732 0.000369549 -0.0102227 0.0156408 0.0326721 0.0627107 -0.0219551 0.0206427 0.183126 0.186058 0.0484692 0.0838951 -0.0454217 -0.0603907
internal_weight=0 456388 156833 95160 270334 88648 6512 186054 120512 5928 3273 149822 139602 85544 61752 54058 23792 111820 73446 22920 17551 61673 50526 38374 47385 46255 36880 24793 37541 24336
internal_count=613221 456388 156833 95160 270334 88648 6512 186054 120512 5928 3273 149822 139602 85544 61752 54058 23792 111820 73446 22920 17551 61673 50526 38374 47385 46255 36880 24793 37541 24336
is_linear=0
shrinkage=0.05


Tree=26
num_leaves=31
num_cat=0
split_feature=1 4 1 6 1 0 6 0 4 6 0 0 10 0 5 5 1 6 1 0 0 6 2 0 0 6 8 1 0 6
split_gain=1.27774e+06 223955 163128 106771 29853 24605.4 17752.9 14549.7 13857.1 13275.6 12513.8 14525.4 16086.1 11057.1 10748.7 19823.9 9133.64 9092.02 9450.52 10539.2 8809.85 8489.92 7326.55 7083.38 7015.32 7144.61 6801.99 6799.39 6487.64 6461.65
threshold=3.1650000000000005 1.0000000180025095e-35 1.0000000180025095e-35 1961.5000000000002 17.250000000000004 65300025.500000007 2005.5000000000002 1117389754.0000002 1.5000000000000002 2001.5000000000002 3277564.0000000005 24805097.000000004 120.50000000000001 268106148.50000003 18.500000000000004 19.500000000000004 8.2500000000000018 1991.5000000000002 59.500000000000007 48607836.000000007 258408.00000000003 2006.5000000000002 23.500000000000004 85824261.000000015 71506712.000000015 1998.5000000000002 9.5000000000000018 1.2500000000000002 13994152.500000002 2006.5000000000002
decision_type=2 2 2 2 2 2 2 2 2 2 2 2 2 2 2 2 2 2 2 2 2 2 2 2 2 2 2 2 2 2
left_child=2 4 3 7 6 29 10 14 -3 -7 20 -12 22 23 26 -16 -14 -6 19 21 -2 -19 -13 28 25 -4 -1 -26 -8 -5
right_child=1 8 24 5 17 9 13 -9 -10 -11 11 12 16 -15 15 -17 -18 18 -20 -21 -22 -23 -24 -25 27 -27 -28 -29 -30 -31
leaf_value=0.29938532779946309 -0.056732908912790952 -0.068113356754467169 -0.0098463928637973729 0.087702161180465851 -0.087110483662541482 0.17968100992626848 0.0030096027207190644 0.12126415890373597 -0.095935999077000816 0.13032267005263695 -0.05450753747235787 0.22896824702179647 0.0030468380148088474 0.05203956637277856 0.53216909481179642 0.27275106394472032 -0.030659705479484933 -0.072307895848379614 -0.05452610430113073 -0.0071402762705626765 0.18130404938926314 -0.013318162653067307 0.054220212164430508 -0.034229489189243921 0.1011402767993187 0.054507348707844273 1.0443874128403203 0.057462090901830853 0.063609425894740987 0.14558822463287921
leaf_weight=2624 539 74925 6007 16076 7382 46401 15814 584 111129 19285 17915 676 48649 21324 2154 1119 34246 14202 27842 49883 1394 10691 5322 8327 13275 15293 31 27098 6128 6886
leaf_count=2624 539 74925 6007 16076 7382 46401 15814 584 111129 19285 17915 676 48649 21324 2154 1119 34246 14202 27842 49883 1394 10691 5322 8327 13275 15293 31 27098 6128 6886
internal_value=0 -0.0425121 0.122918 0.16397 -0.013455 0.149615 0.000307529 0.35938 -0.0847317 0.16519 -0.0111526 -0.0134344 -0.00515681 0.0244618 0.382838 0.443477 -0.0108782 -0.033515 -0.0296595 -0.0204007 0.11493 -0.0469731 0.0739151 0.00503365 0.0595752 0.0363584 0.308084 0.0718239 0.019934 0.105061
internal_weight=0 456388 156833 95160 270334 88648 160334 6512 186054 65686 108741 106808 88893 51593 5928 3273 82895 110000 102618 74776 1933 24893 5998 30269 61673 21300 2655 40373 21942 22962
internal_count=613221 456388 156833 95160 270334 88648 160334 6512 186054 65686 108741 106808 88893 51593 5928 3273 82895 110000 102618 74776 1933 24893 5998 30269 61673 21300 2655 40373 21942 22962
is_linear=0
shrinkage=0.05


Tree=27
num_leaves=31
num_cat=0
split_feature=1 4 1 6 1 0 0 4 1 6 1 6 5 5 6 0 0 10 0 1 2 1 0 0 0 0 0 6 8 3
split_gain=1.15316e+06 231310 98771.6 96361 40057.8 22206.4 13131.1 13119.3 12040.7 16128.9 14976.5 11981.2 9766.14 14400.9 9068.6 11410.4 14141.4 14562.4 8292.66 8020.75 7242.04 7050 6665.65 6529.25 6453.4 6360.17 15869.1 12937.1 6459.16 6057.65
threshold=2.5000000000000004 1.0000000180025095e-35 1.0000000180025095e-35 1961.5000000000002 7.2500000000000009 65300025.500000007 1117389754.0000002 3.5000000000000004 43.500000000000007 2002.5000000000002 42.500000000000007 2001.5000000000002 15.500000000000002 19.500000000000004 2006.5000000000002 1634702.5000000002 32791910.000000004 158.50000000000003 505459587.00000006 6.1650000000000009 30.500000000000004 14.250000000000002 34458394.500000007 116935.50000000001 6571922.0000000009 700166092.50000012 346119851.00000006 1984.5000000000002 2.5000000000000004 3.5000000000000004
decision_type=2 2 2 2 2 2 2 2 2 2 2 2 2 2 2 2 2 2 2 2 2 2 2 2 2 2 2 2 2 2
left_child=2 4 3 6 14 -5 12 -3 9 10 21 25 -1 29 15 23 -17 19 -11 -18 -10 24 -4 -2 -6 26 -7 -28 -29 -14
right_child=1 7 22 5 8 11 -8 -9 20 18 -12 -13 13 -15 -16 16 17 -19 -20 -21 -22 -23 -24 -25 -26 -27 27 28 -30 -31
leaf_value=0.2754936348840834 -0.077945318347607484 -0.072663298908700533 0.024371467415382583 0.099808354472648853 0.1419623853202559 0.16360044795546674 0.11520093495715154 -0.10300383186342071 -0.018939031823183915 -0.01227579711930224 0.1914686265882555 0.12380655357186771 0.5214408405379628 0.25911350535749861 0.046596637924801954 -0.035234818013763429 0.13987509054654798 0.011031467112248788 0.020067498107677897 -0.026886242043222854 -0.061484891517466556 -0.056231199465696206 0.073767917478104961 0.2042705252433101 -0.02538493812099954 0.14803897430196675 0.18776195191919573 0.38967974613572276 0.2497185997001295 0.36115615503291054
leaf_weight=2052 251 138028 8591 22962 585 20669 584 48026 16099 59127 728 19285 1903 1119 21396 15625 3517 49854 29810 907 26410 26851 33309 1117 37830 18574 3855 1720 1583 854
leaf_count=2052 251 138028 8591 22962 585 20669 584 48026 16099 59127 728 19285 1903 1119 21396 15625 3517 49854 29810 907 26410 26851 33309 1117 37830 18574 3855 1720 1583 854
internal_value=0 -0.036979 0.127606 0.155771 -0.00907083 0.142134 0.341411 -0.0804951 -0.0217994 -0.0153317 -0.0340597 0.15693 0.363696 0.410391 0.0180492 0.00947902 0.00668031 0.0187464 -0.00143494 0.105686 -0.0453719 -0.0365754 0.0636399 0.15249 -0.0228365 0.170697 0.185821 0.249983 0.322602 0.471792
internal_weight=0 476161 137060 95160 290107 88648 6512 186054 197440 154931 65994 65686 5928 3876 92667 71271 69903 54278 88937 4424 42509 65266 41900 1368 38415 46401 27827 7158 3303 2757
internal_count=613221 476161 137060 95160 290107 88648 6512 186054 197440 154931 65994 65686 5928 3876 92667 71271 69903 54278 88937 4424 42509 65266 41900 1368 38415 46401 27827 7158 3303 2757
is_linear=0
shrinkage=0.05


Tree=28
num_leaves=31
num_cat=0
split_feature=1 4 1 6 1 6 6 0 4 0 0 9 0 1 0 6 1 0 9 2 1 0 0 2 0 0 0 6 2 10
split_gain=1.04366e+06 181897 131747 87086 24849.9 22198.4 14938.7 12546 11893.3 10278.6 12595.2 12594.3 12886.5 12085.7 9655.93 7749.63 8031.35 9859.25 10643.6 8571.15 7777.67 7491.92 7255.03 7021.34 7016.94 6813.73 6259.03 6238.42 8907.09 5875.84
threshold=3.1650000000000005 1.0000000180025095e-35 1.0000000180025095e-35 1959.5000000000002 17.250000000000004 1996.5000000000002 2005.5000000000002 1117389754.0000002 1.5000000000000002 3277564.0000000005 21719997.500000004 4452.5000000000009 45628515.500000007 6.1650000000000009 265150363.50000003 1991.5000000000002 95.500000000000014 102140052.00000001 1555.5000000000002 32.500000000000007 31.500000000000004 258408.00000000003 85824261.000000015 66.500000000000014 19456939.000000004 1435591179.0000002 898119495.00000012 2004.5000000000002 26.500000000000004 655.50000000000011
decision_type=2 2 2 2 2 2 2 2 2 2 2 2 2 2 2 2 2 2 2 2 2 2 2 2 2 2 2 2 2 2
left_child=2 4 3 7 6 -5 9 -1 -3 21 -11 12 -12 -14 22 -6 17 18 24 27 -20 -2 -8 25 -17 -21 -4 -19 -29 -13
right_child=1 8 26 5 15 -7 14 -9 -10 10 11 29 13 -15 -16 16 -18 19 20 23 -22 -23 -24 -25 -26 -27 -28 28 -30 -31
leaf_value=0.37813244634608545 -0.054224146714568801 -0.061074524251180456 0.048476552585776378 0.15961412075299208 -0.080017068437107597 0.10984467220581431 0.018632547980443181 0.089126661347179892 -0.086850429787119043 -0.055151406211955183 -0.0091832752894140026 -0.012375144056598475 0.11642985448865138 0.021082436908089853 0.047694592752331094 -0.048362308819086257 -0.062380096350321185 0.061485463894088613 -0.049260183455832447 -0.066368024327117955 -0.12694065778498112 0.16528712317796487 -0.037565522649659344 0.0070302840170183142 0.0070654405299395862 -0.0040589624708638992 0.098767079385595591 -0.017090177217863763 0.08444132405378113 -0.056661761976822711
leaf_weight=4465 539 74925 54697 49022 7382 41263 21942 410 111129 14751 17226 51511 5135 9421 21872 10881 13856 5823 10360 11681 4677 1394 7779 11244 12015 7027 6976 12440 2614 8764
leaf_count=4465 539 74925 54697 49022 7382 41263 21942 410 111129 14751 17226 51511 5135 9421 21872 10881 13856 5823 10360 11681 4677 1394 7779 11244 12015 7027 6976 12440 2614 8764
internal_value=0 -0.038421 0.11109 0.147983 -0.012234 0.136868 0.00032238 0.353826 -0.0764703 -0.0101903 -0.0122583 -0.00538521 0.0200835 0.0547187 0.0224796 -0.030536 -0.0269765 -0.0214499 -0.0407396 -0.00705426 -0.0734214 0.104078 0.0039236 -0.024196 -0.0192758 -0.0429638 0.0541651 0.0175388 0.000539911 -0.0188144
internal_weight=0 456388 156833 95160 270334 90285 160334 4875 186054 108741 106808 92057 31782 14556 51593 110000 102618 88762 37933 50829 15037 1933 29721 29952 22896 18708 61673 20877 15054 60275
internal_count=613221 456388 156833 95160 270334 90285 160334 4875 186054 108741 106808 92057 31782 14556 51593 110000 102618 88762 37933 50829 15037 1933 29721 29952 22896 18708 61673 20877 15054 60275
is_linear=0
shrinkage=0.05


Tree=29
num_leaves=31
num_cat=0
split_feature=1 4 1 6 1 6 4 6 8 10 2 1 6 2 2 3 9 8 1 1 7 2 2 2 2 2 2 2 1 2
split_gain=941905 164162 118902 79395.3 22765.4 17568.1 11272.4 11131.2 9467.54 7510.38 9928.3 7481.6 6791.62 5708.96 7472.85 6450.17 6422.52 5838.14 5618.76 10899.7 5618.17 5245.07 7429.6 5074.16 6163.66 4872.02 5617.02 4821.71 4715.72 4656.32
threshold=3.1650000000000005 1.0000000180025095e-35 1.0000000180025095e-35 1961.5000000000002 11.165000000000001 1996.5000000000002 3.5000000000000004 1997.5000000000002 9.5000000000000018 767.50000000000011 85.500000000000014 130.50000000000003 1993.5000000000002 38.500000000000007 35.500000000000007 8.5000000000000018 20184.000000000004 4.5000000000000009 43.500000000000007 42.500000000000007 5.5000000000000009 26.500000000000004 29.500000000000004 66.500000000000014 65.500000000000014 30.500000000000004 66.500000000000014 86.500000000000014 21.250000000000004 35.500000000000007
decision_type=2 2 2 2 2 2 2 2 2 2 2 2 2 2 2 2 2 2 2 2 2 2 2 2 2 2 2 2 2 2
left_child=2 4 3 8 7 -5 20 -2 9 10 -1 12 -6 14 15 16 -11 -18 19 21 -3 -14 -23 24 -7 -20 -27 -25 -24 -10
right_child=1 6 -4 5 11 23 -8 -9 29 13 -12 -13 18 -15 -16 -17 17 -19 25 -21 -22 22 28 27 -26 26 -28 -29 -30 -31
leaf_value=0.19880663879869764 -0.012364953870876489 -0.053881063630282437 0.051456801396072838 0.14897616413785045 -0.049897114146021847 0.096471901766080934 -0.09351111755444616 0.018202610021587472 0.60042741118032306 0.40531510229932144 0.67901630232819421 -0.074605216677863295 -0.030960090138392921 0.23244420047617553 0.76197259040439835 0.048273160847477944 -0.025500002485760571 0.53522747028619055 -0.012386430238640247 0.10374612878263736 -0.074230988773932957 0.079154216425650806 0.0043527909089866399 0.14035049060223428 -0.014599878809734682 -0.071032264276438939 -0.017491987747107793 0.068153946687406278 -0.02519250433035802 0.29426995266924849
leaf_weight=2267 53802 59985 61673 47385 19086 24542 48026 66710 391 2084 113 7134 29481 964 119 159 169 64 14298 2017 78043 2508 30208 12571 1316 12682 7982 2834 24426 182
leaf_count=2267 53802 59985 61673 47385 19086 24542 48026 66710 391 2084 113 7134 29481 964 119 159 169 64 14298 2017 78043 2508 30208 12571 1316 12682 7982 2834 24426 182
internal_value=0 -0.0364999 0.105535 0.140583 -0.0116223 0.128205 -0.0726468 0.00455587 0.30909 0.290364 0.221607 -0.0246355 -0.0221372 0.336344 0.374941 0.35634 0.37748 0.12852 -0.0178507 -0.0111555 -0.0653872 -0.013831 -0.0049936 0.104352 0.0908191 -0.0348251 -0.050351 0.127069 -0.00885644 0.503184
internal_weight=0 456388 156833 95160 270334 88648 186054 120512 6512 5939 2380 149822 142688 3559 2595 2476 2317 233 123602 88640 138028 86623 57142 41263 25858 34962 20664 15405 54634 573
internal_count=613221 456388 156833 95160 270334 88648 186054 120512 6512 5939 2380 149822 142688 3559 2595 2476 2317 233 123602 88640 138028 86623 57142 41263 25858 34962 20664 15405 54634 573
is_linear=0
shrinkage=0.05


Tree=30
num_leaves=31
num_cat=0
split_feature=1 4 1 6 1 0 6 0 4 0 9 0 6 0 0 9 6 0 9 9 1 0 2 0 6 6 0 0 2 0
split_gain=845824 149047 104724 70484 21478.4 21064.9 14158.8 11014.1 10367.5 9912.37 10507.8 16490.3 9268.61 9195.31 10283 9338.75 9175.84 6444.94 12556.6 8389.35 6427.5 11715.6 6795.05 6379.58 11973.1 6168.79 5954.1 5914.71 6028.55 5831.85
threshold=3.1650000000000005 1.0000000180025095e-35 1.0000000180025095e-35 1959.5000000000002 21.250000000000004 67201841.000000015 2003.5000000000002 1117389754.0000002 2.5000000000000004 22314993.000000004 1837.5000000000002 265150363.50000003 2007.5000000000002 5458317.5000000009 26130914.000000004 4632.0000000000009 2001.5000000000002 290151064.00000006 4547.5000000000009 6983.5000000000009 6.1650000000000009 119845112.50000001 25.500000000000004 212858419.50000003 1973.5000000000002 2006.5000000000002 2081536.0000000002 282537214.00000006 5.5000000000000009 700166092.50000012
decision_type=2 2 2 2 2 2 2 2 2 2 2 2 2 2 2 2 2 2 2 2 2 2 2 2 2 2 2 2 2 2
left_child=2 4 3 7 6 25 13 -1 -3 12 -11 -12 -8 -2 -15 20 29 18 -6 -19 21 -16 -22 -17 -25 -5 -14 28 -4 -7
right_child=1 8 27 5 17 16 9 -9 -10 10 11 -13 26 14 15 23 -18 19 -20 -21 22 -23 -24 24 -26 -27 -28 -29 -30 -31
leaf_value=0.3419062408441782 0.11383984703360582 -0.059649305433290528 0.098008408227148944 0.065455485321865667 -0.030499935400106468 0.1640752005508738 -0.027843058781145198 0.076873005711755094 -0.083988046648022202 0.077602571414700075 -0.035306272207215141 0.039355611952091335 -0.011746699018046647 -0.0584635214053046 0.01448151968438431 -0.040593568315737155 0.10820662324199366 0.094128361569644825 -0.094915351687657509 -0.020419770867675796 -0.04417378877604014 0.13981776258725701 0.019589767798565676 -0.043858864994832422 0.013365069389569573 0.12175984055320653 0.06520754232377439 0.068296632538063534 0.030001055181472454 0.12870400803497212
leaf_weight=4436 1419 115506 3614 16379 40715 27557 18719 430 70435 9389 10301 26220 4484 11684 6709 22649 19224 1665 9292 39976 6241 2582 12641 14317 25284 6920 5720 24774 33144 20192
leaf_count=4436 1419 115506 3614 16379 40715 27557 18719 430 70435 9389 10301 26220 4484 11684 6709 22649 19224 1665 9292 39976 6241 2582 12641 14317 25284 6920 5720 24774 33144 20192
internal_value=0 -0.0344201 0.100245 0.13312 -0.0106969 0.123128 -0.000588143 0.318486 -0.0688689 0.0159815 0.0304253 0.0182967 -0.00694531 -0.0125654 -0.0143221 -0.00861835 0.137374 -0.0303698 -0.0424692 -0.0158396 0.0152668 0.0493129 -0.00148577 -0.0194283 -0.00732317 0.0821784 0.0313911 0.0494139 0.0366875 0.149118
internal_weight=0 455948 156670 95138 270007 90272 178359 4866 185941 74833 45910 36521 28923 103526 102107 90423 66973 91648 50007 41641 28173 9291 18882 62250 39601 23299 10204 61532 36758 47749
internal_count=612618 455948 156670 95138 270007 90272 178359 4866 185941 74833 45910 36521 28923 103526 102107 90423 66973 91648 50007 41641 28173 9291 18882 62250 39601 23299 10204 61532 36758 47749
is_linear=0
shrinkage=0.05


Tree=31
num_leaves=31
num_cat=0
split_feature=1 4 6 1 1 0 1 1 2 0 2 0 4 6 2 5 5 0 10 6 2 0 9 9 2 0 7 9 0 9
split_gain=764624 153566 63330.9 46725.4 29163.6 19024.5 16244.3 11577.8 13170.2 10908.6 11124.9 9940.23 9519.93 8371.24 7492.78 6965.93 7264.53 6804.59 8844.3 6781.42 6014.38 9455.02 14992.1 9618.69 7082.88 5964.71 11208 8297.52 5913.68 8833.65
threshold=2.5000000000000004 1.0000000180025095e-35 1959.5000000000002 1.0000000180025095e-35 5.5000000000000009 69416701.000000015 1.0000000180025095e-35 21.250000000000004 60.500000000000007 1369196148.5000002 55.500000000000007 1117389754.0000002 3.5000000000000004 2001.5000000000002 4.5000000000000009 18.500000000000004 19.500000000000004 262202625.50000003 465.50000000000006 2007.5000000000002 30.500000000000004 102140052.00000001 1555.5000000000002 6983.5000000000009 26.500000000000004 950001255.00000012 8.3200000000000021 20184.000000000004 30104445.000000004 3714.0000000000005
decision_type=2 2 2 2 2 2 2 2 2 2 2 2 2 2 2 2 2 2 2 2 2 2 2 2 2 2 2 2 2 2
left_child=2 4 6 5 17 -4 11 8 9 14 -11 15 -3 -7 28 25 -17 -2 -19 -10 21 22 -9 -23 -25 -1 27 -27 -6 -30
right_child=1 12 3 -5 7 13 -8 20 19 10 -12 -13 -14 -15 -16 16 -18 18 -20 -21 -22 23 -24 24 -26 26 -28 -29 29 -31
leaf_value=0.1949059369762057 0.011421916310831282 -0.058765046912852427 0.078377279956005103 0.052530726346051708 -0.012997893002186867 0.14184604286132965 0.082660883259890711 -0.0063194085777259603 0.0022144913160169893 0.050490680086944052 -0.20695784248024829 0.073029343361078303 -0.084643010609400701 0.10265915768597685 -0.02714285600546288 0.42606666619829137 0.25063980370232181 0.11753476174732619 0.032564785436347679 0.041896991965211468 -0.039407047489736495 0.064417734084990727 -0.11145914284467295 -0.024329806468417717 0.070793034999757906 0.44000604135527033 1.4724495013554892 -0.39857492157907198 0.18984197000652886 0.0056830290851154252
leaf_weight=1308 34919 138084 23587 40863 3385 47587 1015 9327 34986 7951 443 430 47857 19098 76617 1946 847 3698 17820 15552 54580 5519 5327 14636 2259 278 24 33 1164 1478
leaf_count=1308 34919 138084 23587 40863 3385 47587 1015 9327 34986 7951 443 430 47857 19098 76617 1946 847 3698 17820 15552 54580 5519 5327 14636 2259 278 24 33 1164 1478
internal_value=0 -0.0299642 0.10409 0.0968914 -0.00720076 0.116972 0.264609 -0.0150052 -0.00604198 -0.0174044 0.0369036 0.302562 -0.0654254 0.130623 -0.0229203 0.324811 0.372867 0.0250508 0.0471674 0.0144259 -0.0288514 -0.0133088 -0.0445396 0.00710948 -0.0116111 0.243119 0.431366 0.351025 0.0307579 0.0868189
internal_weight=0 475602 137016 131135 289661 90272 5881 233224 141576 91038 8394 4866 185941 66685 82644 4436 2793 56437 21518 50538 91648 37068 14654 22414 16895 1643 335 311 6027 2642
internal_count=612618 475602 137016 131135 289661 90272 5881 233224 141576 91038 8394 4866 185941 66685 82644 4436 2793 56437 21518 50538 91648 37068 14654 22414 16895 1643 335 311 6027 2642
is_linear=0
shrinkage=0.05


Tree=32
num_leaves=31
num_cat=0
split_feature=1 4 6 1 1 6 1 6 4 1 2 1 8 5 7 6 2 2 8 9 4 1 1 4 1 2 2 2 1 2
split_gain=690073 138594 57155.9 42169.7 26385.4 15123.7 14660.4 9830.44 9000.57 7080.6 6995.88 6479.24 6163.24 5936.06 5659.26 4743.14 4447.82 6410.39 4370.74 5387.24 4313.1 5625.15 4985.97 9636.03 16179.4 4300.65 4054.23 3984.95 3950.72 3934.83
threshold=2.5000000000000004 1.0000000180025095e-35 1959.5000000000002 1.0000000180025095e-35 11.165000000000001 1996.5000000000002 1.0000000180025095e-35 2004.5000000000002 1.5000000000000002 5.5000000000000009 18.500000000000004 130.50000000000003 6.5000000000000009 18.500000000000004 4.2500000000000009 1953.5000000000002 66.500000000000014 65.500000000000014 5.5000000000000009 18467.500000000004 5.5000000000000009 76.500000000000014 78.500000000000014 4.5000000000000009 77.500000000000014 24.500000000000004 86.500000000000014 4.5000000000000009 21.250000000000004 48.500000000000007
decision_type=2 2 2 2 2 2 2 2 2 2 2 2 2 2 2 2 2 2 2 2 2 2 2 2 2 2 2 2 2 2
left_child=2 4 6 5 7 -4 10 9 14 -2 18 12 -6 15 28 -12 17 -7 -1 -20 21 -10 23 -23 -25 27 -18 -11 -3 -5
right_child=1 8 3 29 11 16 -8 -9 20 25 13 -13 -14 -15 -16 -17 26 -19 19 -21 -22 22 -24 24 -26 -27 -28 -29 -30 -31
leaf_value=0.1181343498915183 0.015301956490604895 -0.013245105440473387 0.12995243448213242 0.065822554659191942 -0.025285355018360031 0.082089616280183894 0.078527850071197669 0.027646292090576164 -0.074617058348893456 0.040583790350660801 0.38924246700860121 -0.068158091184528466 -0.0015406358097714132 0.35482958943938259 -0.061192962472060242 0.16534225140764414 0.12235063423189535 -0.02969076103046922 1.2190017789602281 0.26736463349441003 -0.091053468429528689 -0.069137143989127334 -0.051997830154039026 -0.072118765115737921 0.48009569775927202 -0.00090878988267318629 0.05597202344374224 -0.036419763643073644 -0.0479734240989554 0.034781194335661708
leaf_weight=751 40332 13971 48889 19908 105511 24652 1015 46134 61874 1838 319 7075 36881 2803 41345 915 12562 1353 20 58 21958 718 25755 258 273 32330 2816 19560 19789 20955
leaf_count=751 40332 13971 48889 19908 105511 24652 1015 46134 61874 1838 319 7075 36881 2803 41345 915 12562 1353 20 58 21958 718 25755 258 273 32330 2816 19560 19789 20955
internal_value=0 -0.028466 0.0988857 0.0920469 -0.00684071 0.111123 0.251378 0.00874099 -0.0621542 -0.000531578 0.287433 -0.0214557 -0.0191352 0.314601 -0.0487906 0.223222 0.0888792 0.0762739 0.155134 0.511374 -0.0712097 -0.0663071 -0.0472665 0.0502954 0.211788 -0.0124173 0.110195 -0.0298055 -0.0336017 0.0499042
internal_weight=0 475602 137016 131135 289661 90272 5881 140194 185941 94060 4866 149467 142392 4037 75105 1234 41383 26005 829 78 110836 88878 27004 1249 531 53728 15378 21398 33760 40863
internal_count=612618 475602 137016 131135 289661 90272 5881 140194 185941 94060 4866 149467 142392 4037 75105 1234 41383 26005 829 78 110836 88878 27004 1249 531 53728 15378 21398 33760 40863
is_linear=0
shrinkage=0.05


Tree=33
num_leaves=31
num_cat=0
split_feature=1 4 1 6 1 0 6 0 0 0 4 8 6 0 9 0 1 6 1 0 6 1 0 0 9 9 0 2 8 10
split_gain=623788 109206 76218 51812.2 16652.2 16529.6 9338.8 8989.93 8955.47 9867.69 8123.01 6632.76 6605.48 6484.85 9213.9 8755.79 6700.46 6555.96 7541.08 6254.2 5724.46 5517.81 5242.33 15902.3 11726 7218.46 23862.8 7844.14 6701.45 6402.18
threshold=3.1650000000000005 1.0000000180025095e-35 1.0000000180025095e-35 1959.5000000000002 13.250000000000002 65300025.500000007 2004.5000000000002 1117389754.0000002 2081536.0000000002 20560457.500000004 1.5000000000000002 3.5000000000000004 2001.5000000000002 290151064.00000006 4547.5000000000009 33624825.500000007 59.500000000000007 1974.5000000000002 90.500000000000014 265150363.50000003 2006.5000000000002 26.250000000000004 686576244.50000012 369126751.00000006 9948.5000000000018 16513.500000000004 803137552.50000012 16.500000000000004 2.5000000000000004 476.50000000000006
decision_type=2 2 2 2 2 2 2 2 2 2 2 2 2 2 2 2 2 2 2 2 2 2 2 2 2 2 2 2 2 2
left_child=2 4 3 7 6 20 8 -1 -2 -10 -3 -11 22 14 15 -6 -17 -15 -19 -8 -5 -16 23 -7 28 29 27 -27 -25 -24
right_child=1 10 -4 5 13 12 19 -9 9 11 -12 -13 -14 17 21 16 -18 18 -20 -21 -22 -23 25 24 -26 26 -28 -29 -30 -31
